tree
version=v4
num_class=1
num_tree_per_iteration=1
label_index=0
max_feature_idx=36
objective=regression
feature_names=feature_0 feature_1 feature_2 feature_3 feature_4 feature_5 feature_6 feature_7 feature_8 feature_9 feature_10 feature_11 feature_12 feature_13 feature_14 feature_15 feature_16 feature_17 feature_18 feature_19 feature_20 feature_21 feature_22 feature_23 feature_24 feature_25 feature_26 feature_27 feature_28 feature_29 feature_30 feature_31 feature_32 feature_33 feature_34 feature_35 feature_36
feature_infos=none [0.010999999999999999:0.84099999999999997] [0:1] [-0.099997669999999997:0.099870059999999997] [-0.099993855000000006:0.099892140000000004] none [0.0028240195999999999:0.5040694] none none [0.0079999919999999992:1] [0.10000000000000001:0.69999999999999996] [0.02:0.14000000000000001] [0:1] [0:1] [0:0.995] [0.14285714999999999:1] [0:0.83333330000000005] [0:1] [0.14285714999999999:1] [-0.92049634000000002:1] [-0.99991006000000004:0.99999939999999998] [-0.86874450000000003:0.94840139999999995] [0:1] [0:1] [0:1] [0:0.85714287] [0:0.83333330000000005] [0:1] [0.22:1] [0:0.38] [0:0.59999999999999998] none none none none [0:1] none
tree_sizes=1160 1124 1302 1221 1225 1220 1226 1310 1217 1226 1135 960 1219 1228 1236 1238 1426 1334 1147 976 1343 1253 1249 1326 1246 1155 1069 1155 1162 1168 1260 1247 1074 1251 1073 1071 1072 1241 1323 1245 1157 1328 1068 1230 1141 1119 1065 1215 794 962 891 1052 981 1064 969 1295 1144 1039 1060 1159 993 1059 839 1061 1125 740 843 867 1133 816 964 1115 833 987 1123 1215 977 933 842 938 1125 775 978 937 1163 845 1011 1011 914 827 1033 909 1101 1008 983 1032 1219 1064 832 921

Tree=0
num_leaves=12
num_cat=0
split_feature=1 21 9 1 1 14 1 1 1 12 1
split_gain=18.06 5.04233 1.25916 0.927012 0.527918 0.45598 0.280118 0.0568021 0.0188131 0.0156319 0.00661787
threshold=0.059000000000000004 0.63351306500000015 0.80000000000000016 0.76600000000000013 0.24600000000000002 0.57000000000000017 0.24600000000000002 0.42250000000000004 0.42250000000000004 1.0000000180025095e-35 0.57900000000000007
decision_type=2 10 2 2 2 2 2 2 2 2 2
left_child=-1 2 3 5 -3 9 -4 -8 -6 10 -2
right_child=1 4 6 -5 8 -7 7 -9 -10 -11 -12
leaf_value=0.24098053859234059 0.22650931927274801 0.21903191005435349 0.21914435691104345 0.2309696013560818 0.22524658931664401 0.21927373830786037 0.22509977301733042 0.22305734989563264 0.22310164845190919 0.22524658931664401 0.22696375451107961
leaf_weight=191 990 327 44 122 22 22 60 124 61 22 100
leaf_count=191 990 327 44 122 22 22 60 124 61 22 100
internal_value=0.226331 0.224853 0.226213 0.22683 0.219945 0.226379 0.222792 0.223695 0.223608 0.226525 0.226556
internal_weight=2085 1894 1484 1256 410 1134 228 184 83 1112 1090
internal_count=2085 1894 1484 1256 410 1134 228 184 83 1112 1090
is_linear=0
shrinkage=1


Tree=1
num_leaves=11
num_cat=0
split_feature=1 21 1 2 1 1 1 1 1 1
split_gain=16.3012 4.55217 1.08917 0.797487 0.592388 0.474502 0.19873 0.0628566 0.0164606 5.38908e-05
threshold=0.059000000000000004 0.63351306500000015 0.76600000000000013 0.30450000000000005 0.24600000000000002 0.24600000000000002 0.57900000000000007 0.42250000000000004 0.42250000000000004 0.57900000000000007
decision_type=2 10 2 2 2 2 2 2 2 2
left_child=-1 2 3 4 -2 -3 7 -6 -7 -5
right_child=1 5 -4 9 6 8 -8 -9 -10 -11
leaf_value=0.013917507595382145 -0.0068732027296940614 -0.0069341847771571992 0.0044069237842313787 0.00016946661645002303 -0.0011945256153427872 -0.0010303730912068312 0.00058436617304815275 -0.0031100371040517919 -0.0030680856025745748 0.00045001194682491724
leaf_weight=191 66 327 122 990 82 22 75 124 61 25
leaf_count=191 66 327 122 990 82 22 75 124 61 25
internal_value=0 -0.00140473 -0.000112721 -0.000521529 -0.00259135 -0.0060678 -0.00156578 -0.00237276 -0.00259003 0.000181346
internal_weight=2085 1894 1484 1362 347 410 281 206 83 1015
internal_count=2085 1894 1484 1362 347 410 281 206 83 1015
is_linear=0
shrinkage=0.05


Tree=2
num_leaves=13
num_cat=0
split_feature=19 25 11 21 2 28 2 9 22 3 2 30
split_gain=9.80568 3.66663 2.83679 1.58969 0.978013 0.499181 0.385517 0.276673 0.258846 0.128797 0.0763318 0.0669462
threshold=-0.77336701999999991 0.35714286500000003 0.030000000000000002 0.63351306500000015 0.20024699500000004 0.90500000000000014 0.30450000000000005 0.50000000000000011 0.53116845000000013 0.040991192500000002 0.30050000000000004 0.27500000000000008
decision_type=8 2 2 10 2 2 2 2 2 2 2 2
left_child=8 2 -2 5 11 6 -4 -7 -1 -10 -5 -3
right_child=1 4 3 10 -6 7 -8 -9 9 -11 -12 -13
leaf_value=0.01319816169118581 0.013104847335475643 -0.0029582235538759463 -0.0049001487214928091 -0.0027618517635634582 -0.0065862391724345621 0.0041867581695733168 0.00016099414813113374 0.0005736994358909118 0.010608939163589405 0.0048545926327432567 -0.0065406353330233315 -0.0011509205763094936
leaf_weight=111 42 131 39 22 283 122 990 100 33 20 88 104
leaf_count=111 42 131 39 22 283 122 990 100 33 20 88 104
internal_value=0 -0.00100272 0.000321347 -7.04077e-05 -0.00459795 0.000432767 -2.64265e-05 0.00258276 0.011731 0.00854488 -0.00583349 -0.00218049
internal_weight=2085 1921 1403 1361 518 1251 1029 222 164 53 110 235
internal_count=2085 1921 1403 1361 518 1251 1029 222 164 53 110 235
is_linear=0
shrinkage=0.05


Tree=3
num_leaves=12
num_cat=0
split_feature=1 21 9 1 1 18 1 1 1 2 1
split_gain=13.3699 3.70519 0.941077 0.68188 0.383471 0.342774 0.199794 0.0431362 0.0127363 0.0112973 0.00482411
threshold=0.059000000000000004 0.63351306500000015 0.80000000000000016 0.76600000000000013 0.24600000000000002 0.91666665000000014 0.24600000000000002 0.42250000000000004 0.42250000000000004 0.075000000000000025 0.57900000000000007
decision_type=2 10 2 2 2 2 2 2 2 2 2
left_child=-1 2 3 5 -3 9 -4 -8 -6 -2 -11
right_child=1 4 6 -5 8 -7 7 -9 -10 10 -12
leaf_value=0.012604257896394395 -0.00091363141035062699 -0.0062589832814196784 -0.0061566171732619244 0.003977591399771576 -0.00092180192436837501 -0.0061199286674482253 -0.0010526285158120056 -0.0028523766050696092 -0.0027707988155453961 0.00015294524910053169 0.00054504312407392837
leaf_weight=191 22 327 44 122 22 22 60 124 61 990 100
leaf_count=191 22 327 44 122 22 22 60 124 61 990 100
internal_value=0 -0.00127212 -0.00010615 0.000426887 -0.00547911 4.01624e-05 -0.00306335 -0.00229355 -0.00234257 0.00016707 0.000193551
internal_weight=2085 1894 1484 1256 410 1134 228 184 83 1112 1090
internal_count=2085 1894 1484 1256 410 1134 228 184 83 1112 1090
is_linear=0
shrinkage=0.05


Tree=4
num_leaves=12
num_cat=0
split_feature=1 21 9 1 1 14 1 1 1 12 1
split_gain=12.068 3.34517 0.850575 0.615452 0.34442 0.309504 0.179647 0.0384956 0.0110486 0.0102364 0.00431766
threshold=0.059000000000000004 0.63351306500000015 0.80000000000000016 0.76600000000000013 0.24600000000000002 0.57000000000000017 0.24600000000000002 0.42250000000000004 0.42250000000000004 1.0000000180025095e-35 0.57900000000000007
decision_type=2 10 2 2 2 2 2 2 2 2 2
left_child=-1 2 3 5 -3 9 -4 -8 -6 10 -2
right_child=1 4 6 -5 8 -7 7 -9 -10 -11 -12
leaf_value=0.011974374954610643 0.00014529875719030148 -0.0059461298830025926 -0.0058494844066312801 0.0037788748167558936 -0.00087592034722884862 -0.0058153171749675972 -0.0010000846288267665 -0.0027098727075564686 -0.0026324855514273122 -0.00086815655568606175 0.00051781817411000915
leaf_weight=191 990 327 44 122 22 22 60 124 61 22 100
leaf_count=191 990 327 44 122 22 22 60 124 61 22 100
internal_value=0 -0.0012091 -0.000101053 0.000405533 -0.00520649 3.79059e-05 -0.00291259 -0.00218034 -0.00222867 0.000158716 0.000184106
internal_weight=2085 1894 1484 1256 410 1134 228 184 83 1112 1090
internal_count=2085 1894 1484 1256 410 1134 228 184 83 1112 1090
is_linear=0
shrinkage=0.05


Tree=5
num_leaves=12
num_cat=0
split_feature=1 22 1 9 1 6 1 1 1 2 1
split_gain=10.8929 2.78382 0.828938 0.716616 0.442551 0.189645 0.129778 0.0317616 0.0116024 0.00927684 0.00386232
threshold=0.059000000000000004 0.19485033000000004 0.24600000000000002 0.80000000000000016 0.76600000000000013 0.068481855000000022 0.24600000000000002 0.42250000000000004 0.42250000000000004 0.075000000000000025 0.57900000000000007
decision_type=2 2 2 2 2 2 2 2 2 2 2
left_child=-1 3 -3 4 9 7 -5 -4 -8 -2 -11
right_child=1 2 5 6 -6 -7 8 -9 -10 10 -12
leaf_value=0.011375969394160341 -0.00082494514357989732 -0.0056570653803913341 -0.00095926072297211227 -0.0055576732099191402 0.0035819907677219869 0.0030578421512201647 -0.00081414948600582241 -0.0026015411848136567 -0.0024901697690107292 0.0001380345578646027 0.00049195313187954315
leaf_weight=191 22 349 59 44 103 20 23 99 85 990 100
leaf_count=191 22 349 59 44 103 20 23 99 85 990 100
internal_value=0 -0.00114923 -0.00423624 3.74302e-05 0.000446041 -0.00142079 -0.00319404 -0.0020209 -0.00218058 0.000150779 0.000175133
internal_weight=2085 1894 527 1367 1215 178 152 158 108 1112 1090
internal_count=2085 1894 527 1367 1215 178 152 158 108 1112 1090
is_linear=0
shrinkage=0.05


Tree=6
num_leaves=12
num_cat=0
split_feature=1 21 9 1 1 14 1 1 2 1 1
split_gain=9.83186 2.72618 0.696151 0.502675 0.27789 0.25173 0.144902 0.0305856 0.00840877 0.00834311 0.00345302
threshold=0.059000000000000004 0.63351306500000015 0.80000000000000016 0.76600000000000013 0.24600000000000002 0.57000000000000017 0.24600000000000002 0.42250000000000004 0.075000000000000025 0.42250000000000004 0.57900000000000007
decision_type=2 10 2 2 2 2 2 2 2 2 2
left_child=-1 2 3 5 -3 8 -4 -8 -2 -6 -10
right_child=1 4 6 -5 9 -7 7 -9 10 -11 -12
leaf_value=0.010807468744861338 -0.00078388453035602753 -0.0053661476728457695 -0.0052804197719037672 0.0034152110350561572 -0.00078457652409961325 -0.0052442932830137363 -0.00090505699510879788 -0.0024483300598396786 0.00013113352601788804 -0.0023758438429543702 0.00046738003223360363
leaf_weight=191 22 327 44 122 22 22 60 124 990 61 100
leaf_count=191 22 327 44 122 22 22 60 124 990 61 100
internal_value=0 -0.00109206 -9.14383e-05 0.000366527 -0.00470073 3.38571e-05 -0.00263524 -0.00197301 0.000143239 -0.00201568 0.000166609
internal_weight=2085 1894 1484 1256 410 1134 228 184 1112 83 1090
internal_count=2085 1894 1484 1256 410 1134 228 184 1112 83 1090
is_linear=0
shrinkage=0.05


Tree=7
num_leaves=13
num_cat=0
split_feature=1 22 1 9 1 1 16 14 1 1 2 1
split_gain=8.87461 2.27074 0.672582 0.585138 0.360239 0.104658 0.102518 0.070026 0.0102262 0.00875194 0.00762341 0.00308519
threshold=0.059000000000000004 0.19485033000000004 0.24600000000000002 0.80000000000000016 0.76600000000000013 0.24600000000000002 0.26785715000000004 0.23232565500000002 0.42250000000000004 0.42250000000000004 0.075000000000000025 0.57900000000000007
decision_type=2 2 2 2 2 2 2 2 2 2 2 2
left_child=-1 3 -3 4 10 -5 7 -4 -8 -7 -2 -12
right_child=1 2 6 5 -6 9 8 -9 -10 -11 11 -13
leaf_value=0.010267378040504108 -0.00074486763498901782 -0.0051064466762529067 -0.0008007514819378999 -0.0050169974497927018 0.0032324702147426944 -0.00072856128006141424 -0.00074552514029843772 0.0028335805231733107 -0.002354156129903251 -0.0022435349833601092 0.00012457751433454689 0.00044403439899394807
leaf_weight=191 22 349 36 44 103 23 22 20 100 85 990 100
leaf_count=191 22 349 36 44 103 23 22 20 100 85 990 100
internal_value=0 -0.00103804 -0.0038261 3.33509e-05 0.000402928 -0.00288629 -0.00128624 0.000410835 -0.00210587 -0.00196813 0.000136076 0.00015851
internal_weight=2085 1894 527 1367 1215 152 178 56 122 108 1112 1090
internal_count=2085 1894 527 1367 1215 152 178 56 122 108 1112 1090
is_linear=0
shrinkage=0.05


Tree=8
num_leaves=12
num_cat=0
split_feature=19 26 28 11 10 6 6 14 22 3 13
split_gain=5.29483 2.23021 1.19614 0.825747 0.744065 0.304689 0.171387 0.148454 0.131085 0.0639113 0.0237871
threshold=-0.77336701999999991 0.25000000500000003 0.90500000000000014 0.030000000000000002 0.55000000000000016 0.15022148000000005 0.072701845000000015 0.57000000000000017 0.53116845000000013 0.040991192500000002 0.71570001500000013
decision_type=8 2 2 2 2 2 2 2 2 2 2
left_child=8 2 4 -4 5 10 -3 -5 -1 -10 -2
right_child=1 6 3 7 -6 -7 -8 -9 9 -11 -12
leaf_value=0.0096899418453715285 -0.0021314899654912337 -0.0021570497775750212 0.0096064619737679501 0.00042185486116624264 0.00011834927180641054 -0.0048346165794334456 -0.0048444858570268999 0.0030862029486264883 0.0077659052754456906 0.0035169716424016807 -0.00087261753001113449
leaf_weight=111 85 85 42 100 990 110 283 122 33 20 104
leaf_count=111 85 85 42 100 990 110 283 122 33 20 104
internal_value=0 -0.000738586 8.76583e-05 0.00315595 -0.000537075 -0.00272324 -0.00423808 0.00190929 0.0086185 0.00626634 -0.00146605
internal_weight=2085 1921 1553 264 1289 299 368 222 164 53 189
internal_count=2085 1921 1553 264 1289 299 368 222 164 53 189
is_linear=0
shrinkage=0.05


Tree=9
num_leaves=12
num_cat=0
split_feature=1 21 9 1 1 14 1 1 2 1 1
split_gain=7.28304 2.00148 0.525562 0.370412 0.201509 0.184446 0.101835 0.0233013 0.006155 0.00521693 0.00245787
threshold=0.059000000000000004 0.63351306500000015 0.80000000000000016 0.76600000000000013 0.24600000000000002 0.57000000000000017 0.24600000000000002 0.42250000000000004 0.075000000000000025 0.42250000000000004 0.57900000000000007
decision_type=2 10 2 2 2 2 2 2 2 2 2
left_child=-1 2 3 5 -3 8 -4 -8 -2 -6 -10
right_child=1 4 6 -5 9 -7 7 -9 10 -11 -12
leaf_value=0.0093011982540133608 -0.00066435929910359888 -0.0046006603808222248 -0.0045250413234001387 0.0029320190502765435 -0.00066498417019574354 -0.0044884610769435826 -0.00078075517638402062 -0.0021481479371775552 0.00011243239717132672 -0.0020320548881729377 0.00040078316456996485
leaf_weight=191 22 327 44 122 22 22 60 124 990 61 100
leaf_count=191 22 327 44 122 22 22 60 124 990 61 100
internal_value=0 -0.000940412 -8.25436e-05 0.000314911 -0.00403251 2.87103e-05 -0.00229313 -0.00173008 0.00012297 -0.0017311 0.000143508
internal_weight=2085 1894 1484 1256 410 1134 228 184 1112 83 1090
internal_count=2085 1894 1484 1256 410 1134 228 184 1112 83 1090
is_linear=0
shrinkage=0.05


Tree=10
num_leaves=11
num_cat=0
split_feature=1 22 1 28 1 1 26 19 1 1
split_gain=6.57404 1.68435 0.481557 0.424324 0.259893 0.0905708 0.0803797 0.0597856 0.0103593 0.00219131
threshold=0.059000000000000004 0.19485033000000004 0.24600000000000002 0.89000000000000012 0.76600000000000013 0.24600000000000002 0.25000000500000003 0.035453395500000005 0.42250000000000004 0.57900000000000007
decision_type=2 2 2 2 2 2 2 10 2 2
left_child=-1 3 -3 5 9 -2 7 -4 -7 -5
right_child=1 2 6 4 -6 8 -8 -9 -10 -11
leaf_value=0.0088363815880707578 -0.0042993022133163313 -0.0043795844133963594 -0.00074792377740503797 0.00010681135055351595 0.0027703840047063242 -0.0007326405165002511 -0.0020781827429970068 0.0024122758458058041 -0.0019177595834159124 0.00038076405553938035
leaf_weight=191 44 349 58 990 103 45 100 20 85 100
leaf_count=191 44 349 58 990 103 45 100 20 85 100
internal_value=0 -0.000893962 -0.00329521 2.82732e-05 0.000368364 -0.00227365 -0.00113977 4.14507e-07 -0.00154684 0.000136564
internal_weight=2085 1894 527 1367 1193 174 178 78 130 1090
internal_count=2085 1894 527 1367 1193 174 178 78 130 1090
is_linear=0
shrinkage=0.05


Tree=11
num_leaves=9
num_cat=0
split_feature=1 26 1 15 1 1 2 1
split_gain=5.93357 1.45181 0.417804 0.457034 0.235476 0.125737 0.120342 0.00195203
threshold=0.059000000000000004 0.25000000500000003 0.76600000000000013 0.84523808500000019 0.24600000000000002 0.42250000000000004 0.075000000000000025 0.57900000000000007
decision_type=2 2 2 2 2 2 2 2
left_child=-1 2 3 4 -2 -3 -5 -8
right_child=1 5 -4 6 -6 -7 7 -9
leaf_value=0.0083947936686029744 -0.00414562159430212 -0.0041547050101518714 0.0026499187071898456 -0.0018219842565641001 -0.00075696951420718272 -0.0019743773985754598 0.0001014713254196513 0.00036174487387696352
leaf_weight=191 110 283 122 85 104 100 990 100
leaf_count=191 110 283 122 85 104 100 990 100
internal_value=0 -0.000849419 -0.000148932 -0.000398536 -0.00252328 -0.00359914 -7.12572e-06 0.000129967
internal_weight=2085 1894 1511 1389 214 383 1175 1090
internal_count=2085 1894 1511 1389 214 383 1175 1090
is_linear=0
shrinkage=0.05


Tree=12
num_leaves=12
num_cat=0
split_feature=1 21 1 19 1 1 6 1 1 1 1
split_gain=5.35551 1.47086 0.357862 0.265743 0.154966 0.146798 0.0872889 0.0214422 0.0135049 0.00303078 0.00103025
threshold=0.059000000000000004 0.63351306500000015 0.76600000000000013 1.0000000180025095e-35 0.24600000000000002 0.24600000000000002 0.072701845000000015 0.57900000000000007 0.42250000000000004 0.42250000000000004 0.57900000000000007
decision_type=2 10 2 10 2 2 2 2 2 2 2
left_child=-1 2 3 4 -2 -3 -5 8 -6 -7 -8
right_child=1 5 -4 6 7 9 10 -9 -10 -11 -12
leaf_value=0.0079752736787781064 -0.0039467531776283954 -0.0039442359847655824 0.0025175313115193164 -0.0016354466296497454 -0.00069182138744233908 -0.00055698122812342316 9.639827185957109e-05 0.00019157364281762642 -0.0018948981694465441 -0.0017283220685494123 0.00032747587717365178
leaf_weight=191 66 327 122 76 74 22 990 25 56 61 75
leaf_count=191 66 327 122 76 74 22 990 25 56 61 75
internal_value=0 -0.000807106 -7.12009e-05 -0.000306923 -0.00189344 -0.00345786 0 -0.000984908 -0.00124956 -0.00147906 0.000117395
internal_weight=2085 1894 1484 1362 221 410 1141 155 130 83 1065
internal_count=2085 1894 1484 1362 221 410 1141 155 130 83 1065
is_linear=0
shrinkage=0.05


Tree=13
num_leaves=12
num_cat=0
split_feature=1 21 9 1 1 14 1 1 2 1 1
split_gain=4.83393 1.3285 0.352935 0.246301 0.131443 0.12167 0.0651276 0.0150791 0.00396817 0.00245361 0.00158679
threshold=0.059000000000000004 0.63351306500000015 0.80000000000000016 0.76600000000000013 0.24600000000000002 0.57000000000000017 0.24600000000000002 0.42250000000000004 0.075000000000000025 0.42250000000000004 0.57900000000000007
decision_type=2 10 2 2 2 2 2 2 2 2 2
left_child=-1 2 3 5 -3 8 -4 -8 -2 -6 -10
right_child=1 4 6 -5 9 -7 7 -9 10 -11 -12
leaf_value=0.0075767187650199967 -0.00052271363118924709 -0.0037470845224860244 -0.003680670504667321 0.0023917577767181755 -0.00052925813606017312 -0.0036442772902514596 -0.00062877056506553826 -0.0017615149507567735 9.1578838384497009e-05 -0.0016420473846105428 0.00032901533416004392
leaf_weight=191 22 327 44 122 22 22 60 124 990 61 100
leaf_count=191 22 327 44 122 22 22 60 124 990 61 100
internal_value=0 -0.000767044 -6.74893e-05 0.000257583 -0.00328626 2.33808e-05 -0.00187949 -0.00141984 0.00010076 -0.00140825 0.000117977
internal_weight=2085 1894 1484 1256 410 1134 228 184 1112 83 1090
internal_count=2085 1894 1484 1256 410 1134 228 184 1112 83 1090
is_linear=0
shrinkage=0.05


Tree=14
num_leaves=12
num_cat=0
split_feature=19 26 28 9 10 16 9 16 15 19 13
split_gain=2.8534 1.2064 0.650633 0.436924 0.406786 0.161336 0.078814 0.0629154 0.0612365 0.0137838 0.0110176
threshold=-0.77336701999999991 0.25000000500000003 0.90500000000000014 0.80000000000000016 0.55000000000000016 1.0000000180025095e-35 0.50000000000000011 0.26785715000000004 0.22500000000000003 0.82207950000000007 0.71570001500000013
decision_type=8 2 2 2 2 2 2 2 2 10 2
left_child=8 2 4 6 5 -2 -4 -3 -1 -9 -7
right_child=1 7 3 -5 -6 10 -8 9 -10 -11 -12
leaf_value=0.0046395457840340418 -0.0035553142320124487 -0.0035620823745091085 0.0022722679401620503 0.0070280594384019004 8.7000360286677676e-05 -0.0015587521349238595 0.00031258100294856943 -0.0015714597031386566 0.0071030892641516206 -0.0033328756555173187 -0.00065316242218647414
leaf_weight=54 110 261 122 42 990 85 100 85 110 22 104
leaf_count=54 110 261 122 42 990 85 100 85 110 22 104
internal_value=-3.49338e-07 -0.000543323 6.35307e-05 0.0023272 -0.000396358 -0.00201299 0.00141258 -0.00311722 0.00632571 -0.00198308 -0.00108749
internal_weight=2085 1921 1553 264 1289 299 222 368 164 107 189
internal_count=2085 1921 1553 264 1289 299 222 368 164 107 189
is_linear=0
shrinkage=0.05


Tree=15
num_leaves=12
num_cat=0
split_feature=1 21 9 1 1 18 1 1 2 1 1
split_gain=3.97366 1.08107 0.295547 0.2006 0.105579 0.0989414 0.050363 0.0132196 0.00319901 0.00160129 0.0012513
threshold=0.059000000000000004 0.63351306500000015 0.80000000000000016 0.76600000000000013 0.24600000000000002 0.91666665000000014 0.24600000000000002 0.42250000000000004 0.075000000000000025 0.42250000000000004 0.57900000000000007
decision_type=2 10 2 2 2 2 2 2 2 2 2
left_child=-1 2 3 5 -3 8 -4 -8 -2 -6 -10
right_child=1 4 6 -5 9 -7 7 -9 10 -11 -12
leaf_value=0.0068690748933034063 -0.00046418587765677483 -0.0033825997029721861 -0.0033193539735140985 0.0021587474877281724 -0.00047040464297543825 -0.0032859265130030083 -0.00056478056790130516 -0.0016329720244111796 8.2650783977072174e-05 -0.0014816350460589028 0.00029696756257460672
leaf_weight=191 22 327 44 122 22 22 60 124 990 61 100
leaf_count=191 22 327 44 122 22 22 60 124 990 61 100
internal_value=-1.94747e-07 -0.000695891 -6.4493e-05 0.000232676 -0.00296848 2.08813e-05 -0.00172283 -0.0013123 9.10894e-05 -0.00127466 0.000106925
internal_weight=2085 1894 1484 1256 410 1134 228 184 1112 83 1090
internal_count=2085 1894 1484 1256 410 1134 228 184 1112 83 1090
is_linear=0
shrinkage=0.05


Tree=16
num_leaves=14
num_cat=0
split_feature=19 26 26 14 21 18 29 2 2 22 14 2 9
split_gain=2.32285 0.984247 0.356628 0.174295 0.322801 0.149193 0.200861 0.0732998 0.0721963 0.0499189 0.0332139 0.00588942 0.00110916
threshold=-0.77336701999999991 0.25000000500000003 1.0000000180025095e-35 0.57000000000000017 0.63351306500000015 0.81666665000000016 0.075000000000000025 0.20024699500000004 0.075000000000000025 0.53116845000000013 0.59500000000000008 1.0000000180025095e-35 0.50000000000000011
decision_type=8 2 2 2 10 2 2 2 2 2 2 2 2
left_child=9 2 3 4 8 -5 -7 -3 11 -1 -8 -2 -10
right_child=1 7 -4 5 -6 6 10 -9 12 -11 -12 -13 -14
leaf_value=0.0064066851318794584 -0.00055312492538688626 -0.0014168503938284381 0.0062245292645512207 0.0041657725559288436 -0.0031712082742156294 0.0020330695444437975 -0.0031223738287908458 -0.0032173801625377078 7.8518661165171802e-05 0.004137912036924713 -0.00053548581721023453 -0.0013993534418184107 0.00028213401763261739
leaf_weight=111 61 85 23 38 88 103 22 283 990 53 43 85 100
leaf_count=111 61 85 23 38 88 103 22 283 990 53 43 85 100
internal_value=-5.5716e-07 -0.000490692 5.71417e-05 -3.27037e-05 -0.000246418 0.00131607 0.000639652 -0.00281558 -3.38953e-05 0.00570692 -0.0014913 -0.00108064 0.00010181
internal_weight=2085 1921 1553 1530 1324 206 168 368 1236 164 65 146 1090
internal_count=2085 1921 1553 1530 1324 206 168 368 1236 164 65 146 1090
is_linear=0
shrinkage=0.05


Tree=17
num_leaves=13
num_cat=0
split_feature=1 21 9 1 1 14 26 1 14 15 1 1
split_gain=3.28006 0.878693 0.24751 0.160742 0.0845355 0.0806765 0.0389243 0.0054072 0.0029417 0.00259599 0.000981838 0.000906928
threshold=0.059000000000000004 0.63351306500000015 0.80000000000000016 0.76600000000000013 0.24600000000000002 0.57000000000000017 0.25000000500000003 0.42250000000000004 0.12026663250000001 0.84523808500000019 0.57900000000000007 0.42250000000000004
decision_type=2 10 2 2 2 2 2 2 2 2 2 2
left_child=-1 2 3 5 -3 9 7 -4 -8 -2 -11 -6
right_child=1 4 6 -5 11 -7 8 -9 -10 10 -12 -13
leaf_value=0.0062404276445422232 -0.00041355050560845506 -0.0030533226094718591 -0.00050928646639708476 0.0019327348117990442 -0.00042033768111494332 -0.0029669615275719585 -0.0028488378260682636 -0.0013294680026544809 -0.0015011372722656792 7.4593125578287321e-05 0.00026804140794996201 -0.0013369479230353563
leaf_weight=191 22 327 60 122 22 22 57 85 26 990 100 61
leaf_count=191 22 327 60 122 22 22 57 85 26 990 100 61
internal_value=-3.85615e-07 -0.000632675 -6.30894e-05 0.000208553 -0.00268159 1.8496e-05 -0.00158086 -0.00102513 -0.00248915 8.23183e-05 9.69504e-05 -0.00115496
internal_weight=2085 1894 1484 1256 410 1134 228 145 83 1112 1090 83
internal_count=2085 1894 1484 1256 410 1134 228 145 83 1112 1090 83
is_linear=0
shrinkage=0.05


Tree=18
num_leaves=11
num_cat=0
split_feature=19 26 28 2 2 2 2 9 22 2
split_gain=1.89254 0.802401 0.434598 0.293515 0.273259 0.105332 0.059284 0.0504399 0.0378759 0.00614046
threshold=-0.77336701999999991 0.25000000500000003 0.90500000000000014 0.075000000000000025 0.30450000000000005 0.29938612500000006 0.20024699500000004 0.50000000000000011 0.53116845000000013 1.0000000180025095e-35
decision_type=8 2 2 2 2 2 2 2 2 2
left_child=8 2 4 -4 5 9 -3 -5 -1 -2
right_child=1 6 3 7 -6 -7 -8 -9 -10 -11
leaf_value=0.0057748989430931007 -0.00054363025143012533 -0.0012738397255207202 0.0057595423274538586 0.0018361773192394377 7.0863846400123372e-05 -0.0029001062697004347 -0.0029055448261483402 0.00025465272136263322 0.0037407374230481807 -0.0012630726866310268
leaf_weight=111 104 85 42 122 990 110 283 100 53 85
leaf_count=111 104 85 42 122 990 110 283 100 53 85
internal_value=-8.59984e-07 -0.000443505 5.08312e-05 0.00190142 -0.000324427 -0.00164955 -0.00254269 0.00114673 0.00515067 -0.000894127
internal_weight=2085 1921 1553 264 1289 299 368 222 164 189
internal_count=2085 1921 1553 264 1289 299 368 222 164 189
is_linear=0
shrinkage=0.05


Tree=19
num_leaves=9
num_cat=0
split_feature=1 26 1 15 1 2 1 1
split_gain=2.69904 0.663962 0.181712 0.205912 0.100444 0.0523892 0.0401498 0.000765804
threshold=0.059000000000000004 0.25000000500000003 0.76600000000000013 0.84523808500000019 0.24600000000000002 0.075000000000000025 0.42250000000000004 0.57900000000000007
decision_type=2 2 2 2 2 2 2 2
left_child=-1 2 3 4 -2 -5 -3 -7
right_child=1 6 -4 5 -6 7 -8 -9
leaf_value=0.0056603689107328483 -0.0027552327244364061 -0.0027603189480342617 0.0017444435055508764 -0.0011999932620083403 -0.00051647484173692273 6.732101081024395e-05 -0.0014589807113537662 0.00024193281230593957
leaf_weight=191 110 283 122 85 104 990 100 100
leaf_count=191 110 283 122 85 104 990 100 100
internal_value=-5.56705e-07 -0.00057434 -9.95083e-05 -0.000265181 -0.00169134 -1.06154e-06 -0.00243406 8.79479e-05
internal_weight=2085 1894 1511 1389 214 1175 383 1090
internal_count=2085 1894 1511 1389 214 1175 383 1090
is_linear=0
shrinkage=0.05


Tree=20
num_leaves=13
num_cat=0
split_feature=1 21 9 1 1 14 1 1 15 1 19 1
split_gain=2.43613 0.64395 0.188896 0.118123 0.0611824 0.0590565 0.0262953 0.00915354 0.00184975 0.000674541 0.000467615 0.000164454
threshold=0.059000000000000004 0.63351306500000015 0.80000000000000016 0.76600000000000013 0.24600000000000002 0.57000000000000017 0.24600000000000002 0.42250000000000004 0.84523808500000019 0.57900000000000007 -0.74919751999999995 0.42250000000000004
decision_type=2 10 2 2 2 2 2 2 2 2 10 2
left_child=-1 2 3 5 -3 8 -4 -8 -2 -10 -9 -6
right_child=1 4 6 -5 11 -7 7 10 9 -11 -12 -13
leaf_value=0.0053774987252391115 -0.00034020111571609701 -0.0026176381415454883 -0.0025684885156938547 0.001657292827121749 -0.00034665049926053346 -0.0025377972801616288 -0.00043094746920337498 -0.0020360227126409026 6.3955300703359545e-05 0.00022984825644072721 -0.0011410156589632637 -0.0011337925684554487
leaf_weight=191 22 327 44 122 22 22 60 22 990 100 102 61
leaf_count=191 22 327 44 122 22 22 60 22 990 100 102 61
internal_value=-5.31186e-07 -0.000545772 -5.76662e-05 0.000179191 -0.00229984 1.56302e-05 -0.00138388 -0.00107221 7.08673e-05 8.37813e-05 -0.00134161 -0.000985989
internal_weight=2085 1894 1484 1256 410 1134 228 184 1112 1090 124 83
internal_count=2085 1894 1484 1256 410 1134 228 184 1112 1090 124 83
is_linear=0
shrinkage=0.05


Tree=21
num_leaves=12
num_cat=0
split_feature=1 21 9 1 1 14 26 1 16 1 14
split_gain=2.19926 0.581556 0.171277 0.106614 0.0545263 0.0533261 0.0278982 0.00307977 0.00168588 0.000592955 0.000357579
threshold=0.059000000000000004 0.63351306500000015 0.80000000000000016 0.76600000000000013 0.24600000000000002 0.57000000000000017 0.25000000500000003 0.42250000000000004 1.0000000180025095e-35 0.57900000000000007 0.12026663250000001
decision_type=2 10 2 2 2 2 2 2 2 2 2
left_child=-1 2 3 5 -3 8 7 -4 9 -2 -8
right_child=1 4 6 -5 -6 -7 10 -9 -10 -11 -12
leaf_value=0.0051087644803062401 6.0757857768258049e-05 -0.0024867962264560912 -0.00040943592294009277 0.0015744960809661952 -0.00093978725207877656 -0.0024114815358123086 -0.0023769691955108987 -0.0010830804158426762 -0.00032326803622742041 0.00021836732739357505 -0.0012704821838729684
leaf_weight=191 990 327 60 122 83 22 57 85 22 100 26
leaf_count=191 990 327 60 122 83 22 57 85 22 100 26
internal_value=-9.98183e-07 -0.000519173 -5.51437e-05 0.000170228 -0.00218612 1.46168e-05 -0.00131811 -0.000839264 6.73237e-05 7.98229e-05 -0.00209247
internal_weight=2085 1894 1484 1256 410 1134 228 145 1112 1090 83
internal_count=2085 1894 1484 1256 410 1134 228 145 1112 1090 83
is_linear=0
shrinkage=0.05


Tree=22
num_leaves=12
num_cat=0
split_feature=1 21 9 1 1 14 26 1 2 1 1
split_gain=1.98534 0.524907 0.155333 0.096226 0.0487929 0.0481517 0.0249913 0.00262018 0.00153719 0.000520062 0.000150182
threshold=0.059000000000000004 0.63351306500000015 0.80000000000000016 0.76600000000000013 0.24600000000000002 0.57000000000000017 0.25000000500000003 0.42250000000000004 0.075000000000000025 0.57900000000000007 0.42250000000000004
decision_type=2 10 2 2 2 2 2 2 2 2 2
left_child=-1 2 3 5 -3 8 7 -4 -2 -10 -6
right_child=1 4 6 -5 10 -7 -8 -9 9 -11 -12
leaf_value=0.0048534598718102473 -0.00030717774467096069 -0.002362494429761902 -0.00038899820555193657 0.0014958357662694754 -0.00028261966177376145 -0.0022914530700957609 -0.0019910774526559491 -0.0010289899722512126 5.7720271847448337e-05 0.00020745985719796781 -0.0010302832359280407
leaf_weight=191 22 327 60 122 22 22 83 85 990 100 61
leaf_count=191 22 327 60 122 22 22 83 85 990 100 61
internal_value=-1.31837e-06 -0.000493768 -5.27437e-05 0.000161713 -0.00207746 1.36547e-05 -0.00125561 -0.000799075 6.39573e-05 7.60624e-05 -0.000892854
internal_weight=2085 1894 1484 1256 410 1134 228 145 1112 1090 83
internal_count=2085 1894 1484 1256 410 1134 228 145 1112 1090 83
is_linear=0
shrinkage=0.05


Tree=23
num_leaves=13
num_cat=0
split_feature=1 21 25 1 1 14 26 19 6 1 14 13
split_gain=1.79225 0.474168 0.132999 0.0873348 0.0434125 0.0433058 0.0255574 0.00216871 0.00209878 0.000399194 0.000332965 1.11143e-05
threshold=0.059000000000000004 0.63351306500000015 0.35714286500000003 0.76600000000000013 0.24600000000000002 0.57000000000000017 0.25000000500000003 0.035453395500000005 0.054938948500000008 0.57900000000000007 0.12026663250000001 0.0014500000000000003
decision_type=2 10 2 2 2 2 2 10 2 2 2 2
left_child=-1 2 3 5 -3 8 7 -4 -2 11 -8 -10
right_child=1 4 6 -5 -6 -7 10 -9 9 -11 -12 -13
leaf_value=0.004610913906934559 -0.00039312425427711923 -0.0022444058711905612 -0.00040592592296853169 0.0014211052056954203 -0.00085129909571506784 -0.0021773988912008467 -0.0021589492850540605 -0.0009810991290088761 5.4719653617417117e-05 0.00019367870223469932 -0.0011080290180170674 0
leaf_weight=191 22 327 81 122 83 22 57 69 968 94 26 23
leaf_count=191 22 327 81 122 83 22 57 69 968 94 26 23
internal_value=-1.61952e-06 -0.000469628 -5.02893e-05 0.000150488 -0.00197486 8.64297e-06 -0.00114934 -0.000704294 5.67964e-05 7.05625e-05 -0.00189164 5.38212e-05
internal_weight=2085 1894 1484 1251 410 1129 233 150 1107 1085 83 991
internal_count=2085 1894 1484 1251 410 1129 233 150 1107 1085 83 991
is_linear=0
shrinkage=0.05


Tree=24
num_leaves=12
num_cat=0
split_feature=1 22 9 1 1 6 1 26 2 1 1
split_gain=1.61795 0.419028 0.107169 0.100233 0.0622138 0.0267961 0.0157518 0.00556727 0.0012487 0.000428221 0.0004144
threshold=0.059000000000000004 0.19485033000000004 0.80000000000000016 0.24600000000000002 0.76600000000000013 0.068481855000000022 0.24600000000000002 0.25000000500000003 0.075000000000000025 0.42250000000000004 0.57900000000000007
decision_type=2 2 2 2 2 2 2 2 2 2 2
left_child=-1 2 4 -3 8 7 -4 -5 -2 -8 -10
right_child=1 3 6 5 -6 -7 9 -9 10 -11 -12
leaf_value=0.0043804887383942321 -0.00027168390775158391 -0.0021431524158207062 -0.002114745623130106 -0.00035209217835249231 0.0013489759959836936 0.00096886217112268375 -0.00022316874565306679 -0.0011327817609419015 5.2159634669841015e-05 -0.00093470747778509546 0.00018918162823973841
leaf_weight=191 22 349 44 59 103 20 23 99 990 85 100
leaf_count=191 22 349 44 59 103 20 23 99 990 85 100
internal_value=-1.89911e-06 -0.000446688 1.14816e-05 -0.00164441 0.000171719 -0.000637806 -0.00123576 -0.000873291 5.80668e-05 -0.000829776 6.93334e-05
internal_weight=2085 1894 1367 527 1215 178 152 158 1112 108 1090
internal_count=2085 1894 1367 527 1215 178 152 158 1112 108 1090
is_linear=0
shrinkage=0.05


Tree=25
num_leaves=11
num_cat=0
split_feature=1 22 29 1 1 6 1 26 1 1
split_gain=1.46045 0.37832 0.0973611 0.0901498 0.0549704 0.0243568 0.0169012 0.00485879 0.000564623 0.000360882
threshold=0.059000000000000004 0.19485033000000004 0.17500000000000002 0.24600000000000002 0.76600000000000013 0.068481855000000022 0.24600000000000002 0.25000000500000003 0.42250000000000004 0.57900000000000007
decision_type=2 2 2 2 2 2 2 2 2 2
left_child=-1 2 4 -3 9 7 -4 -5 -8 -2
right_child=1 3 6 5 -6 -7 8 -9 -10 -11
leaf_value=0.004161578984097746 4.9551915470125068e-05 -0.0020360253807834897 -0.0020092480543519361 -0.00033451735905596952 0.0012815926144501173 0.00092066007003707088 -0.00034598483375692843 -0.0010761998415248907 -0.00088802702729311167 0.00017973199536973664
leaf_weight=191 990 349 44 59 103 20 45 99 85 100
leaf_count=191 990 349 44 59 103 20 45 99 85 100
internal_value=-1.92459e-06 -0.000424629 1.05346e-05 -0.00156269 0.000175329 -0.00060593 -0.00109008 -0.000831255 -0.000739239 6.60972e-05
internal_weight=2085 1894 1367 527 1193 178 174 158 130 1090
internal_count=2085 1894 1367 527 1193 178 174 158 130 1090
is_linear=0
shrinkage=0.05


Tree=26
num_leaves=10
num_cat=0
split_feature=1 21 28 1 14 1 26 1 1
split_gain=1.31821 0.347602 0.106893 0.0632449 0.0321646 0.0314533 0.0184206 0.00145184 0.000313189
threshold=0.059000000000000004 0.63351306500000015 0.89000000000000012 0.76600000000000013 0.57000000000000017 0.24600000000000002 0.25000000500000003 0.42250000000000004 0.57900000000000007
decision_type=2 10 2 2 2 2 2 2 2
left_child=-1 2 6 4 8 -3 7 -2 -4
right_child=1 5 3 -5 -6 -7 -8 -9 -10
leaf_value=0.0039536088206018226 -0.00035767704333506539 -0.0019233248553867186 4.7074573952808136e-05 0.0012244531276111815 -0.0018610081150790684 -0.00072108693824348043 -0.0016392517903266045 -0.00084367784026892012 0.00017075437371368775
leaf_weight=191 82 327 990 122 22 83 83 85 100
leaf_count=191 82 327 990 122 22 83 83 85 100
internal_value=-1.82861e-06 -0.000403541 -4.40035e-05 0.000143488 2.02974e-05 -0.00169237 -0.000989141 -0.000635322 6.30227e-05
internal_weight=2085 1894 1484 1234 1112 410 250 167 1090
internal_count=2085 1894 1484 1234 1112 410 250 167 1090
is_linear=0
shrinkage=0.05


Tree=27
num_leaves=11
num_cat=0
split_feature=1 22 28 1 1 6 1 26 1 1
split_gain=1.18991 0.308128 0.0806429 0.0733597 0.0446546 0.0197331 0.0136776 0.00380019 0.000270723 0.00021762
threshold=0.059000000000000004 0.19485033000000004 0.89000000000000012 0.24600000000000002 0.76600000000000013 0.068481855000000022 0.24600000000000002 0.25000000500000003 0.57900000000000007 0.42250000000000004
decision_type=2 2 2 2 2 2 2 2 2 2
left_child=-1 2 6 -3 8 7 -2 -5 -4 -8
right_child=1 3 4 5 -6 -7 9 -9 -10 -11
leaf_value=0.0037560319480223537 -0.0018272366721073245 -0.0018383109433599408 4.4721080136630541e-05 -0.000293202207828738 0.0011564118679247934 0.00081877766167791322 -0.00031087975990349334 -0.00096835935230843353 0.00016222518224912985 -0.00080154352656157412
leaf_weight=191 44 349 990 59 103 20 45 99 100 85
leaf_count=191 44 349 990 59 103 20 45 99 100 85
internal_value=-1.86173e-06 -0.000383644 8.72648e-06 -0.00141072 0.000159034 -0.000543713 -0.000992609 -0.000748214 6.01019e-05 -0.0006705
internal_weight=2085 1894 1367 527 1193 178 174 158 1090 130
internal_count=2085 1894 1367 527 1193 178 174 158 1090 130
is_linear=0
shrinkage=0.05


Tree=28
num_leaves=11
num_cat=0
split_feature=1 21 28 1 14 1 19 1 1 1
split_gain=1.07402 0.282893 0.0883761 0.0517497 0.0261402 0.0252327 0.0125761 0.00573623 0.000734545 0.000232945
threshold=0.059000000000000004 0.63351306500000015 0.89000000000000012 0.76600000000000013 0.57000000000000017 0.24600000000000002 -0.77336701999999991 0.24600000000000002 0.42250000000000004 0.57900000000000007
decision_type=2 10 2 2 2 2 10 2 2 2
left_child=-1 2 6 4 9 -3 -2 -8 -9 -4
right_child=1 5 3 -5 -6 -7 7 8 -10 -11
leaf_value=0.0035683286522989314 -0.0018423966922849978 -0.0017353005935040789 4.2485252863012346e-05 0.0011081343551794102 -0.0016768791860315053 -0.00064672868190026169 -0.0016190320691641638 -0.00032468825719352186 -0.0007257742138014377 0.0001541220245754475
leaf_weight=191 37 327 990 122 22 83 22 82 109 100
leaf_count=191 37 327 990 122 22 83 22 82 109 100
internal_value=-1.7689e-06 -0.000364604 -3.99137e-05 0.000130246 1.83736e-05 -0.00152733 -0.00089953 -0.000711495 -0.000580005 5.73271e-05
internal_weight=2085 1894 1484 1234 1112 410 250 213 191 1090
internal_count=2085 1894 1484 1234 1112 410 250 213 191 1090
is_linear=0
shrinkage=0.05


Tree=29
num_leaves=11
num_cat=0
split_feature=1 21 9 1 14 6 26 1 16 1
split_gain=0.969572 0.255405 0.0796011 0.0475901 0.0233212 0.0226747 0.0114201 0.000723372 0.00071528 0.000199372
threshold=0.059000000000000004 0.63351306500000015 0.80000000000000016 0.76600000000000013 0.57000000000000017 0.068481855000000022 0.25000000500000003 0.42250000000000004 1.0000000180025095e-35 0.57900000000000007
decision_type=2 10 2 2 2 2 2 2 2 2
left_child=-1 2 3 4 8 -3 7 -4 9 -2
right_child=1 5 6 -5 -6 -7 -8 -9 -10 -11
leaf_value=0.0033900055693182754 4.0361205021709769e-05 -0.00060532953517554607 -0.00026777827811618019 0.0010527730250485506 -0.0015934145794464991 -0.0016476876115729009 -0.0014133623378098049 -0.00072526734532431638 -0.00019150270208109557 0.00014642362378641861
leaf_weight=191 990 82 60 122 22 328 83 85 22 100
leaf_count=191 990 82 60 122 22 328 83 85 22 100
internal_value=-1.92911e-06 -0.000346789 -3.81029e-05 0.000114414 8.96919e-06 -0.00145161 -0.000899887 -0.000570736 4.53075e-05 5.4691e-05
internal_weight=2085 1894 1484 1256 1134 410 228 145 1112 1090
internal_count=2085 1894 1484 1256 1134 410 228 145 1112 1090
is_linear=0
shrinkage=0.05


Tree=30
num_leaves=12
num_cat=0
split_feature=1 21 28 1 14 6 19 1 2 1 1
split_gain=0.875286 0.230594 0.0729891 0.0421131 0.0213312 0.0201873 0.0103144 0.00454818 0.000249788 0.000169568 9.20974e-05
threshold=0.059000000000000004 0.63351306500000015 0.89000000000000012 0.76600000000000013 0.57000000000000017 0.068481855000000022 -0.77336701999999991 0.24600000000000002 1.0000000180025095e-35 0.57900000000000007 0.42250000000000004
decision_type=2 10 2 2 2 2 10 2 2 2 2
left_child=-1 2 6 4 9 10 -2 -8 -9 -4 -3
right_child=1 5 3 -5 -6 -7 7 8 -10 -11 -12
leaf_value=0.0032205939304604074 -0.001680047552018474 -7.9200503193010562e-05 3.8343349241656016e-05 0.0010001775048166686 -0.0015141043458049654 -0.0015653284218903722 -0.0014680984434229218 -0.00034045153911928602 -0.00068904662244328324 0.00013910975559827663 -0.00067330071185025923
leaf_weight=191 37 22 990 122 22 328 22 106 85 100 60
leaf_count=191 37 22 990 122 22 328 22 106 85 100 60
internal_value=-2.07682e-06 -0.000329859 -3.63762e-05 0.000117939 1.65695e-05 -0.00137966 -0.000817811 -0.000643851 -0.000522029 5.21866e-05 -0.0005751
internal_weight=2085 1894 1484 1234 1112 410 250 213 191 1090 82
internal_count=2085 1894 1484 1234 1112 410 250 213 191 1090 82
is_linear=0
shrinkage=0.05


Tree=31
num_leaves=12
num_cat=0
split_feature=19 26 28 2 2 2 2 9 18 15 2
split_gain=0.490379 0.211801 0.11715 0.0759197 0.0691263 0.0252809 0.0160322 0.0123376 0.00809372 0.0302585 0.000705771
threshold=-0.77336701999999991 0.25000000500000003 0.90500000000000014 0.30450000000000005 0.075000000000000025 0.29938612500000006 0.20024699500000004 0.50000000000000011 0.46428571500000004 0.45000000000000007 1.0000000180025095e-35
decision_type=8 2 2 2 2 2 2 2 2 2 2
left_child=8 2 3 5 -4 10 -3 -6 9 -1 -2
right_child=1 6 4 -5 7 -7 -8 -9 -10 -11 -12
leaf_value=0.00082641951137315227 -0.00028414078446876312 -0.00059986091908352003 0.0028763478263469319 3.6426374674917217e-05 0.00095020952778673883 -0.0014937889788445293 -0.0015020245581560026 0.00013216121462299364 0.0032812131523061701 0.0028531294490764438 -0.00065463478408850188
leaf_weight=37 104 85 42 990 122 110 283 100 61 66 85
leaf_count=37 104 85 42 990 122 110 283 100 61 66 85
internal_value=-2.34133e-06 -0.000228836 2.36014e-05 -0.000169645 0.000985779 -0.000868454 -0.00130745 0.000604457 0.00261873 0.00217509 -0.000477464
internal_weight=2085 1921 1553 1289 264 299 368 222 164 103 189
internal_count=2085 1921 1553 1289 264 299 368 222 164 103 189
is_linear=0
shrinkage=0.05


Tree=32
num_leaves=10
num_cat=0
split_feature=1 21 28 1 14 6 26 1 1
split_gain=0.720426 0.187806 0.0613067 0.0342623 0.0173419 0.0157141 0.00994809 0.000274927 0.000119737
threshold=0.059000000000000004 0.63351306500000015 0.89000000000000012 0.76600000000000013 0.57000000000000017 0.068481855000000022 0.25000000500000003 0.42250000000000004 0.57900000000000007
decision_type=2 10 2 2 2 2 2 2 2
left_child=-1 2 6 4 8 -3 7 -2 -4
right_child=1 5 3 -5 -6 -7 -8 -9 -10
leaf_value=0.0029216453121133903 -0.00026493139392565868 -0.00052370941561355239 3.4605240853170929e-05 0.00090273794909537979 -0.0013643902385126951 -0.0014122554197843864 -0.0012400594773611547 -0.00062194149580058569 0.00012555975645136736
leaf_weight=191 82 82 990 122 22 328 83 85 100
leaf_count=191 82 82 990 122 22 328 83 85 100
internal_value=-1.84917e-06 -0.000299447 -3.42461e-05 0.000106882 1.4997e-05 -0.00124691 -0.000750608 -0.000476829 4.75472e-05
internal_weight=2085 1894 1484 1234 1112 410 250 167 1090
internal_count=2085 1894 1484 1234 1112 410 250 167 1090
is_linear=0
shrinkage=0.05


Tree=33
num_leaves=12
num_cat=0
split_feature=19 26 28 2 2 2 6 14 21 15 2
split_gain=0.399646 0.172856 0.0959045 0.0623166 0.0553171 0.0202652 0.0131478 0.00983766 0.00471614 0.0317121 0.000443441
threshold=-0.77336701999999991 0.25000000500000003 0.90500000000000014 0.30450000000000005 0.075000000000000025 0.29938612500000006 0.068481855000000022 0.57000000000000017 -0.80138489999999984 0.36666667000000003 1.0000000180025095e-35
decision_type=8 2 2 2 2 2 2 2 8 2 2
left_child=8 2 3 5 -4 10 -3 -6 -1 -10 -2
right_child=1 6 4 -5 7 -7 -8 -9 9 -11 -12
leaf_value=0.0031676707079495918 -0.00025397910106673082 -0.00052637961730759653 0.002587136754549314 3.2875152208259424e-05 0.00011928804020130344 -0.0013490969137534784 -0.0013567945823881123 0.00085763807372662201 0.00065086930287334152 0.0026100208477522003 -0.00059088094402914458
leaf_weight=39 104 84 42 990 100 110 284 122 37 88 85
leaf_count=39 104 84 42 990 100 110 284 122 37 88 85
internal_value=-1.88007e-06 -0.000206583 2.11627e-05 -0.00015337 0.000891998 -0.000786556 -0.00118102 0.000547764 0.00236408 0.00207106 -0.000432169
internal_weight=2085 1921 1553 1289 264 299 368 222 164 125 189
internal_count=2085 1921 1553 1289 264 299 368 222 164 125 189
is_linear=0
shrinkage=0.05


Tree=34
num_leaves=10
num_cat=0
split_feature=1 22 28 1 1 6 1 19 1
split_gain=0.593137 0.153595 0.0417026 0.033036 0.0214303 0.00977207 0.00598596 0.00255188 8.07675e-05
threshold=0.059000000000000004 0.19485033000000004 0.89000000000000012 0.24600000000000002 0.76600000000000013 0.068481855000000022 0.24600000000000002 -0.74919751999999995 0.57900000000000007
decision_type=2 2 2 2 2 2 2 10 2
left_child=-1 2 6 -3 8 7 -2 -5 -4
right_child=1 3 4 5 -6 -7 -8 -9 -10
leaf_value=0.0026510450154667688 -0.0012962303253190588 -0.0012865025756079772 3.1231560076917725e-05 -0.0011924425667842926 0.00080534858677886736 0.00051850742053481474 -0.00047864639246800509 -0.00040685151457994589 0.00011332959711707974
leaf_weight=191 44 349 990 22 103 20 130 136 100
leaf_count=191 44 349 990 22 103 20 130 136 100
internal_value=-1.4121e-06 -0.000271664 4.28824e-06 -0.000996816 0.0001134 -0.000400356 -0.000714737 -0.000548548 4.33599e-05
internal_weight=2085 1894 1367 527 1193 178 174 158 1090
internal_count=2085 1894 1367 527 1193 178 174 158 1090
is_linear=0
shrinkage=0.05


Tree=35
num_leaves=10
num_cat=0
split_feature=1 22 28 1 1 6 1 26 1
split_gain=0.535336 0.138814 0.037821 0.0296245 0.0193081 0.0089264 0.00526881 0.00210823 6.46599e-05
threshold=0.059000000000000004 0.19485033000000004 0.89000000000000012 0.24600000000000002 0.76600000000000013 0.068481855000000022 0.24600000000000002 0.25000000500000003 0.57900000000000007
decision_type=2 2 2 2 2 2 2 2 2
left_child=-1 2 6 -3 8 7 -2 -5 -4
right_child=1 3 4 5 -6 -7 -8 -9 -10
leaf_value=0.0025185621695905883 -0.0012315658071076249 -0.0012221958552252696 2.9670140131415907e-05 -0.00015937651368882349 0.00076512023553642456 0.00049271107794930083 -0.0004547324556668363 -0.00068847671746512208 0.00010766877928147694
leaf_weight=191 44 349 990 59 103 20 130 99 100
leaf_count=191 44 349 990 59 103 20 130 99 100
internal_value=-1.22289e-06 -0.000258089 4.07081e-06 -0.000947472 0.000108154 -0.000380369 -0.000680487 -0.000522753 4.14219e-05
internal_weight=2085 1894 1367 527 1193 178 174 158 1090
internal_count=2085 1894 1367 527 1193 178 174 158 1090
is_linear=0
shrinkage=0.05


Tree=36
num_leaves=10
num_cat=0
split_feature=1 22 29 1 1 6 1 19 1
split_gain=0.483167 0.125463 0.0343088 0.0265565 0.0173941 0.00815766 0.00462784 0.00217266 5.04881e-05
threshold=0.059000000000000004 0.19485033000000004 0.17500000000000002 0.24600000000000002 0.76600000000000013 0.068481855000000022 0.24600000000000002 -0.74919751999999995 0.57900000000000007
decision_type=2 2 2 2 2 2 2 10 2
left_child=-1 2 4 -3 8 7 -4 -5 -2
right_child=1 3 6 5 -6 -7 -8 -9 -10
leaf_value=0.0023926999316609765 2.8186783325948621e-05 -0.0011611035991106872 -0.00117012713687355 -0.001098822130098922 0.00072690131075889828 0.00046819802373647683 -0.00043201332107947987 -0.00036359372008851925 0.00010229071705033641
leaf_weight=191 990 349 44 22 103 20 130 136 100
leaf_count=191 990 349 44 22 103 20 130 136 100
internal_value=-1.04148e-06 -0.000245191 3.8644e-06 -0.000900587 0.000103169 -0.00036136 -0.000647947 -0.000498223 3.95808e-05
internal_weight=2085 1894 1367 527 1193 178 174 158 1090
internal_count=2085 1894 1367 527 1193 178 174 158 1090
is_linear=0
shrinkage=0.05


Tree=37
num_leaves=12
num_cat=0
split_feature=1 21 9 1 14 1 26 1 2 1 1
split_gain=0.436083 0.112765 0.0383319 0.0213221 0.0101079 0.00814985 0.00527534 0.000264895 0.000212824 0.000185726 3.80453e-05
threshold=0.059000000000000004 0.63351306500000015 0.80000000000000016 0.76600000000000013 0.57000000000000017 0.24600000000000002 0.25000000500000003 0.42250000000000004 0.075000000000000025 0.42250000000000004 0.57900000000000007
decision_type=2 10 2 2 2 2 2 2 2 2 2
left_child=-1 2 3 4 8 -3 7 -4 -2 -7 -10
right_child=1 5 6 -5 -6 9 -8 -9 10 -11 -12
leaf_value=0.0022731275520419527 -5.7093741380655913e-05 -0.0010912522097331456 -0.00014258336385064287 0.00070638092140149237 -0.0010466698961694857 0 -0.00098821919137683715 -0.00049318224016563878 2.6777587166367764e-05 -0.00049468744576660196 9.7181291722289693e-05
leaf_weight=191 22 327 60 122 22 22 83 85 990 61 100
leaf_count=191 22 327 60 122 22 22 83 85 990 61 100
internal_value=-8.70717e-07 -0.000232939 -2.66585e-05 7.80959e-05 6.03753e-06 -0.000967194 -0.000625428 -0.000382764 3.14527e-05 -0.000417543 3.78317e-05
internal_weight=2085 1894 1484 1256 1134 410 228 145 1112 83 1090
internal_count=2085 1894 1484 1256 1134 410 228 145 1112 83 1090
is_linear=0
shrinkage=0.05


Tree=38
num_leaves=13
num_cat=0
split_feature=19 26 28 2 2 2 2 18 18 9 2 19
split_gain=0.237127 0.103885 0.0584261 0.0380598 0.0305636 0.0114964 0.00757071 0.00568163 0.0162461 0.00567607 0.000253551 5.79211e-05
threshold=-0.77336701999999991 0.25000000500000003 0.90500000000000014 0.30450000000000005 0.075000000000000025 0.29938612500000006 0.20024699500000004 0.46428571500000004 0.36666667000000003 0.50000000000000011 1.0000000180025095e-35 -0.68889254999999994
decision_type=8 2 2 2 2 2 2 2 2 2 2 10
left_child=7 2 3 5 -4 10 11 8 -1 -6 -2 -3
right_child=1 6 4 -5 9 -7 -8 -9 -10 -11 -12 -13
leaf_value=0.0019434961345210198 -0.00018071924523234829 0 0.0019674834784235355 2.5438841483080247e-05 0.00067109079676070825 -0.0010443122778341621 -0.0010524979475734302 0.0023677972311522879 0.0004217073120518194 9.2327077389247245e-05 -0.00046855212330432954 -0.00046386568601908853
leaf_weight=66 104 22 42 990 122 110 283 61 37 100 85 63
leaf_count=66 104 22 42 990 122 110 283 61 37 100 85 63
internal_value=-1.17714e-06 -0.000159407 1.64411e-05 -0.000119059 0.000696756 -0.00061406 -0.000914893 0.00182074 0.00144627 0.000433058 -0.000336788 -0.000397296
internal_weight=2085 1921 1553 1289 264 299 368 164 103 222 189 85
internal_count=2085 1921 1553 1289 264 299 368 164 103 222 189 85
is_linear=0
shrinkage=0.05


Tree=39
num_leaves=12
num_cat=0
split_feature=19 25 11 21 25 28 9 9 18 18 30
split_gain=0.214761 0.0878193 0.0574144 0.0352163 0.0167152 0.0126875 0.00843986 0.00504074 0.00471174 0.0143891 0.00222786
threshold=-0.77336701999999991 0.35714286500000003 0.030000000000000002 0.63351306500000015 0.50000001500000002 0.90500000000000014 0.3000000000000001 0.50000000000000011 0.46428571500000004 0.36666667000000003 0.32500000000000001
decision_type=8 2 2 10 2 2 2 2 2 2 2
left_child=8 2 -2 5 10 6 -4 -7 9 -1 -3
right_child=1 4 3 -5 -6 7 -8 -9 -10 -11 -12
leaf_value=0.0018464683900261793 0.0018693430327109087 -0.00043771849619805712 2.4167027784361509e-05 -0.00086281910609727985 -0.00027616139194402387 0.00063756375003798296 -0.0007244609958489838 8.7715333376961815e-05 0.002249601202271574 0.00040067866083104013 -0.00099989160999303084
leaf_weight=66 42 56 990 110 179 122 39 100 61 37 283
leaf_count=66 42 56 990 110 179 122 39 100 61 37 283
internal_value=-8.57182e-07 -0.000151556 5.05532e-05 -2.03379e-06 -0.000708523 6.97212e-05 0 0.000412548 0.00173289 0.0013765 -0.000921927
internal_weight=2085 1921 1403 1361 518 1251 1029 222 164 103 339
internal_count=2085 1921 1403 1361 518 1251 1029 222 164 103 339
is_linear=0
shrinkage=0.05


Tree=40
num_leaves=11
num_cat=0
split_feature=1 22 29 1 1 26 1 19 19 1
split_gain=0.328697 0.0851842 0.0236503 0.0163378 0.0113492 0.00613696 0.00269576 0.00140313 0.000656036 9.3254e-06
threshold=0.059000000000000004 0.19485033000000004 0.17500000000000002 0.24600000000000002 0.76600000000000013 0.25000000500000003 0.24600000000000002 0.035453395500000005 -0.74919751999999995 0.57900000000000007
decision_type=2 2 2 2 2 2 2 10 10 2
left_child=-1 2 4 -3 9 7 -4 -5 -7 -2
right_child=1 3 6 5 -6 8 -8 -9 -10 -11
leaf_value=0.0019734923993415198 2.2958799532418339e-05 -0.00094879290365926933 -0.00096006771452437727 -9.9863468993153818e-05 0.00058993740914214249 -0.0010184776899984267 -0.0003563616939496069 0.00038169662083559365 -0.00037638253431585976 8.3333953073458543e-05
leaf_weight=191 990 349 44 58 103 22 130 20 78 100
leaf_count=191 990 349 44 58 103 22 130 20 78 100
internal_value=-4.45477e-07 -0.00020224 2.33644e-06 -0.000742283 8.54042e-05 -0.000309005 -0.000538206 0 -0.00056847 3.30917e-05
internal_weight=2085 1894 1367 527 1193 178 174 78 100 1090
internal_count=2085 1894 1367 527 1193 178 174 78 100 1090
is_linear=0
shrinkage=0.05


Tree=41
num_leaves=13
num_cat=0
split_feature=19 26 28 2 2 2 2 9 18 18 2 19
split_gain=0.175022 0.0764277 0.0437053 0.0287175 0.0216047 0.00831399 0.00533194 0.00400825 0.00366321 0.0114934 0.000150699 0.000108066
threshold=-0.77336701999999991 0.25000000500000003 0.90500000000000014 0.30450000000000005 0.075000000000000025 0.29938612500000006 0.20024699500000004 0.50000000000000011 0.46428571500000004 0.36666667000000003 1.0000000180025095e-35 -0.68889254999999994
decision_type=8 2 2 2 2 2 2 2 2 2 2 10
left_child=8 2 3 5 -4 10 11 -6 9 -1 -2 -3
right_child=1 6 4 -5 7 -7 -8 -9 -10 -11 -12 -13
leaf_value=0.0016557592881699735 -0.00014759616818508061 0 0.0016776576054209483 2.1810975935198757e-05 0.00057785918678322551 -0.0009030280649986839 -0.00090240418814920118 7.9171414036754078e-05 0.0020387921214054922 0.00034277475667449667 -0.00040747163812908957 -0.00039291401141324628
leaf_weight=66 104 22 42 990 122 110 283 100 61 37 85 63
leaf_count=66 104 22 42 990 122 110 283 100 61 37 85 63
internal_value=-4.24902e-07 -0.000136702 1.36772e-05 -0.000103071 0.000602465 -0.000533146 -0.000784735 0.000375874 0.00156449 0.00123339 -0.000291066 -0.000333611
internal_weight=2085 1921 1553 1289 264 299 368 222 164 103 189 85
internal_count=2085 1921 1553 1289 264 299 368 222 164 103 189 85
is_linear=0
shrinkage=0.05


Tree=42
num_leaves=10
num_cat=0
split_feature=1 22 28 1 1 26 1 19 19
split_gain=0.271402 0.0703864 0.0195758 0.012422 0.00916471 0.00537083 0.00199627 0.00108438 0.000761111
threshold=0.059000000000000004 0.19485033000000004 0.89000000000000012 0.24600000000000002 0.76600000000000013 0.25000000500000003 0.24600000000000002 0.035453395500000005 -0.74919751999999995
decision_type=2 2 2 2 2 2 2 10 10
left_child=-1 2 6 -3 -4 7 -2 -5 -7
right_child=1 3 4 5 -6 8 -8 -9 -10
leaf_value=0.0017933285970110225 -0.00086715528297991976 -0.00085624980736781042 3.0313370447428493e-05 -8.7511783710996676e-05 0.00053160421570146936 -0.00097941683533673109 -0.00032269376053401118 0.00033576214889907718 -0.00034174013692973886
leaf_weight=191 44 349 1090 58 103 22 130 20 78
leaf_count=191 44 349 1090 58 103 22 130 20 78
internal_value=-1.21506e-07 -0.000183706 1.92304e-06 -0.000674611 7.7825e-05 -0.000290121 -0.000489512 0 -0.000532817
internal_weight=2085 1894 1367 527 1193 178 174 78 100
internal_count=2085 1894 1367 527 1193 178 174 78 100
is_linear=0
shrinkage=0.05


Tree=43
num_leaves=12
num_cat=0
split_feature=1 22 29 14 1 6 19 1 6 13 1
split_gain=0.245024 0.0637132 0.0177778 0.0111397 0.00825726 0.002599 0.00187282 0.00170952 0.00147742 4.6515e-05 1.95825e-06
threshold=0.059000000000000004 0.19485033000000004 0.17500000000000002 0.69333335000000018 0.76600000000000013 0.068481855000000022 -0.74919751999999995 0.24600000000000002 0.06432995950000002 0.99871480000000012 0.57900000000000007
decision_type=2 2 2 2 2 2 10 2 2 2 2
left_child=-1 2 4 5 10 6 -3 -4 -5 -9 -2
right_child=1 3 7 8 -6 -7 -8 9 -10 -11 -12
leaf_value=0.0017037090845893406 1.9205021736854626e-05 -0.00093066760721275104 -0.00082389587734967408 -0.00018234482384016718 0.00050504981756036894 -0.00081392864578836354 -0.00023534271861532711 -0.00033949315834905258 0.00033535309962983892 0 7.3702647290253021e-05
leaf_weight=191 990 22 44 43 103 350 92 107 20 23 100
leaf_count=191 990 22 44 43 103 350 92 107 20 23 100
internal_value=-2.37154e-07 -0.000174792 1.64173e-06 -0.000641847 7.41456e-05 -0.000726566 -0.000414047 -0.000466506 0 -0.000306571 2.87978e-05
internal_weight=2085 1894 1367 527 1193 464 114 174 63 130 1090
internal_count=2085 1894 1367 527 1193 464 114 174 63 130 1090
is_linear=0
shrinkage=0.05


Tree=44
num_leaves=11
num_cat=0
split_feature=1 22 28 1 1 26 1 6 19 29
split_gain=0.221204 0.0576913 0.0162267 0.00973968 0.00743022 0.00460877 0.00143336 0.000957824 0.000380494 8.56958e-07
threshold=0.059000000000000004 0.19485033000000004 0.89000000000000012 0.24600000000000002 0.76600000000000013 0.25000000500000003 0.24600000000000002 0.06432995950000002 -0.74919751999999995 0.27960534500000006
decision_type=2 2 2 2 2 2 2 2 10 2
left_child=-1 2 6 -3 -4 7 -2 -5 -7 -8
right_child=1 3 4 5 -6 8 9 -9 -10 -11
leaf_value=0.0016185682132442481 -0.00078279447072352414 -0.00077276476897647169 2.7587711381329642e-05 -7.7992163217031817e-05 0.00047982177858816319 -0.00088434478291600093 -0.00032253434992874486 0.00031866885012766318 -0.00031329898690451871 0
leaf_weight=191 44 349 1090 58 103 22 107 20 78 23
leaf_count=191 44 349 1090 58 103 22 107 20 78 23
internal_value=-3.11483e-07 -0.000166284 1.42864e-06 -0.000610721 7.08599e-05 -0.000264676 -0.000445663 0 -0.000489637 -0.000292611
internal_weight=2085 1894 1367 527 1193 178 174 78 100 130
internal_count=2085 1894 1367 527 1193 178 174 78 100 130
is_linear=0
shrinkage=0.05


Tree=45
num_leaves=11
num_cat=0
split_feature=1 22 9 1 1 26 2 28 2 1
split_gain=0.199733 0.0522152 0.0148434 0.00860745 0.00685889 0.00420354 0.000808776 9.71441e-05 8.3417e-05 1.80875e-06
threshold=0.059000000000000004 0.19485033000000004 0.80000000000000016 0.24600000000000002 0.76600000000000013 0.25000000500000003 1.0000000180025095e-35 0.8600000000000001 0.075000000000000025 0.57900000000000007
decision_type=2 2 2 2 2 2 2 2 2 2
left_child=-1 2 4 -3 8 7 -4 -5 -2 -10
right_child=1 3 6 5 -6 -7 -8 -9 9 -11
leaf_value=0.0015376821370850929 0 -0.0007341376092285985 0 -3.0751005405022923e-05 0.00045585399249678787 -0.00046771253257900104 -0.00051555464460458931 7.1101460646647599e-05 1.6865621482175149e-05 6.8643188441765826e-05
leaf_weight=191 22 349 23 37 103 100 129 41 990 100
leaf_count=191 22 349 23 37 103 100 129 41 990 100
internal_value=-5.02042e-07 -0.000158333 1.04322e-06 -0.00058115 6.29656e-05 -0.000252873 -0.000460771 0 2.20403e-05 2.62085e-05
internal_weight=2085 1894 1367 527 1215 178 152 78 1112 1090
internal_count=2085 1894 1367 527 1215 178 152 78 1112 1090
is_linear=0
shrinkage=0.05


Tree=46
num_leaves=10
num_cat=0
split_feature=1 22 28 14 1 6 1 6 1
split_gain=0.180284 0.0472209 0.0135117 0.00844562 0.00602038 0.00138851 0.00115832 0.00112447 0.000467137
threshold=0.059000000000000004 0.19485033000000004 0.89000000000000012 0.69333335000000018 0.76600000000000013 0.068481855000000022 0.24600000000000002 0.06432995950000002 0.42250000000000004
decision_type=2 2 2 2 2 2 2 2 2
left_child=-1 2 6 5 -4 8 -2 -5 -3
right_child=1 3 4 7 -6 -7 -8 -9 -10
leaf_value=0.0014608382479853498 -0.00071802420833078377 -2.9217603182133952e-05 2.5127758836394537e-05 -0.00015314785896513065 0.00043308337686075735 -0.00069802392455564329 -0.00026250572618867328 0.00029927732293211402 -0.00045676155977729534
leaf_weight=191 44 37 1090 43 103 350 130 20 77
leaf_count=191 44 37 1090 43 103 350 130 20 77
internal_value=-4.18048e-07 -0.000150487 8.96645e-07 -0.000552578 6.45735e-05 -0.000626327 -0.00040676 0 -0.000361966
internal_weight=2085 1894 1367 527 1193 464 174 63 114
internal_count=2085 1894 1367 527 1193 464 174 63 114
is_linear=0
shrinkage=0.05


Tree=47
num_leaves=12
num_cat=0
split_feature=1 22 9 14 1 1 2 1 14 2 1
split_gain=0.162773 0.042771 0.0122892 0.00765086 0.00556168 0.000992789 0.000663375 0.000386237 0.000252288 7.03771e-05 1.67139e-06
threshold=0.059000000000000004 0.19485033000000004 0.80000000000000016 0.69333335000000018 0.76600000000000013 0.24600000000000002 1.0000000180025095e-35 0.42250000000000004 0.89550000000000007 0.075000000000000025 0.57900000000000007
decision_type=2 2 2 2 2 2 2 2 2 2 2
left_child=-1 2 4 5 9 -3 -4 -7 -5 -2 -11
right_child=1 3 6 8 -6 7 -8 -9 -10 10 -12
leaf_value=0.0013878345391057601 0 -0.00066255003251764952 0 6.4185888046475788e-05 0.00041145024528486658 -2.7760656957195765e-05 -0.00046891925660251283 -0.00043949191897875596 -0.00014449086385817008 1.4766163893744581e-05 6.3959326707645436e-05
leaf_weight=191 22 349 23 41 103 37 129 78 22 990 100
leaf_count=191 22 349 23 41 103 37 129 78 22 990 100
internal_value=-5.17279e-07 -0.000143231 6.67036e-07 -0.000525907 5.73391e-05 -0.000596101 -0.000419203 -0.000350602 0 2.00092e-05 2.38715e-05
internal_weight=2085 1894 1367 527 1215 464 152 115 63 1112 1090
internal_count=2085 1894 1367 527 1215 464 152 115 63 1112 1090
is_linear=0
shrinkage=0.05


Tree=48
num_leaves=7
num_cat=0
split_feature=1 26 1 15 1 2
split_gain=0.146948 0.0389703 0.010416 0.0117175 0.00427718 0.00281561
threshold=0.059000000000000004 0.25000000500000003 0.76600000000000013 0.84523808500000019 0.24600000000000002 0.075000000000000025
decision_type=2 2 2 2 2 2
left_child=-1 2 3 4 -2 -5
right_child=1 -3 -4 5 -6 -7
leaf_value=0.001318479123394225 -0.00063124099825859941 -0.0005871398582396589 0.00041909653061877303 -0.00027566808489283724 -0.00010889230824301984 2.2907610787972387e-05
leaf_weight=191 110 383 122 85 104 1090
leaf_count=191 110 383 122 85 104 1090
internal_value=-5.38738e-07 -0.000136257 -1.86297e-05 -6.07034e-05 -0.000400912 0
internal_weight=2085 1894 1511 1389 214 1175
internal_count=2085 1894 1511 1389 214 1175
is_linear=0
shrinkage=0.05


Tree=49
num_leaves=9
num_cat=0
split_feature=1 26 21 1 2 1 1 2
split_gain=0.132654 0.0351456 0.009736 0.00779724 0.00284788 0.0028773 0.000966611 0.000393251
threshold=0.059000000000000004 0.25000000500000003 0.63351306500000015 0.76600000000000013 0.30450000000000005 0.57900000000000007 0.24600000000000002 0.015000000000000001
decision_type=2 2 10 2 2 2 2 2
left_child=-1 2 3 4 5 7 -4 -2
right_child=1 -3 6 -5 -6 -7 -8 -9
leaf_value=0.0012525896911671625 -0.00011729906523632173 -0.00055779054741120139 -0.0005529646164442706 0.00039815888087967695 1.5305489963382952e-05 4.2430329392013081e-05 0 -0.00039401340699412522
leaf_weight=191 99 383 88 122 1015 75 22 90
leaf_count=191 99 383 88 122 1015 75 22 90
internal_value=-5.11426e-07 -0.000129579 -1.77002e-05 1.44268e-05 -1.82955e-05 -0.00016637 -0.000471935 -0.000275648
internal_weight=2085 1894 1511 1401 1279 264 110 189
internal_count=2085 1894 1511 1401 1279 264 110 189
is_linear=0
shrinkage=0.05


Tree=50
num_leaves=8
num_cat=0
split_feature=1 26 1 15 1 2 1
split_gain=0.119743 0.0317024 0.00850424 0.00981247 0.00340217 0.00223357 1.56628e-06
threshold=0.059000000000000004 0.25000000500000003 0.76600000000000013 0.84523808500000019 0.24600000000000002 0.075000000000000025 0.57900000000000007
decision_type=2 2 2 2 2 2 2
left_child=-1 2 3 4 -2 -5 -7
right_child=1 -3 -4 5 -6 6 -8
leaf_value=0.0011899929720769998 -0.00057367256383236492 -0.00052990830281026877 0.00037826724139932338 -0.00024498724789040211 -9.8833071755014522e-05 1.2117469184494378e-05 5.7839640145460809e-05
leaf_weight=191 110 383 122 85 104 990 100
leaf_count=191 110 383 122 85 104 990 100
internal_value=-4.43536e-07 -0.000123189 -1.67591e-05 -5.50796e-05 -0.000366417 0 2.09038e-05
internal_weight=2085 1894 1511 1389 214 1175 1090
internal_count=2085 1894 1511 1389 214 1175 1090
is_linear=0
shrinkage=0.05


Tree=51
num_leaves=10
num_cat=0
split_feature=1 26 21 1 12 14 1 19 19
split_gain=0.108074 0.0286089 0.00793261 0.00634939 0.00224343 0.00245405 0.000704649 0.000199279 0.00263666
threshold=0.059000000000000004 0.25000000500000003 0.63351306500000015 0.76600000000000013 1.0000000180025095e-35 0.57000000000000017 0.24600000000000002 -0.77336701999999991 -1.0000000180025095e-35
decision_type=2 2 10 2 2 2 2 10 10
left_child=-1 2 3 4 5 -2 -4 -3 -9
right_child=1 7 6 -5 -6 -7 -8 8 -10
leaf_value=0.0011305244582983478 2.0088286849096594e-05 -0.00085586373144484599 -0.00049669667317296272 0.00035936935914620871 -0.00018819047038887593 -0.00050892191960126565 0 0 -0.0004889451403914494
leaf_weight=191 1090 37 88 122 167 22 22 24 322
leaf_count=191 1090 37 88 122 167 22 22 24 322
internal_value=-3.01002e-07 -0.000117032 -1.57572e-05 1.29066e-05 -1.6258e-05 5.08144e-06 -0.000425923 -0.00050342 -0.000451048
internal_weight=2085 1894 1511 1401 1279 1112 110 383 346
internal_count=2085 1894 1511 1401 1279 1112 110 383 346
is_linear=0
shrinkage=0.05


Tree=52
num_leaves=9
num_cat=0
split_feature=1 26 1 15 1 2 28 1
split_gain=0.0975947 0.02584 0.00694525 0.00809855 0.00273539 0.00185696 0.000180159 1.4479e-06
threshold=0.059000000000000004 0.25000000500000003 0.76600000000000013 0.84523808500000019 0.24600000000000002 0.075000000000000025 0.91500000000000015 0.57900000000000007
decision_type=2 2 2 2 2 2 2 2
left_child=-1 2 3 4 -2 -5 -3 -7
right_child=1 6 -4 5 -6 7 -8 -9
leaf_value=0.0010740278187353596 -0.00052008057735542293 -0.00050481142988897042 0.00034141560324622562 -0.00022335381462697279 -8.6484241901425425e-05 1.0507343077771392e-05 -0.00012018270695300968 5.3947135809805246e-05
leaf_weight=191 110 344 122 85 104 990 39 100
leaf_count=191 110 344 122 85 104 990 39 100
internal_value=-4.50366e-07 -0.000111497 -1.50758e-05 -5.00093e-05 -0.000332853 0 -0.000478739 1.9084e-05
internal_weight=2085 1894 1511 1389 214 1175 383 1090
internal_count=2085 1894 1511 1389 214 1175 383 1090
is_linear=0
shrinkage=0.05


Tree=53
num_leaves=10
num_cat=0
split_feature=1 26 21 1 2 1 1 2 28
split_gain=0.0881052 0.0233883 0.00645965 0.00517497 0.00193204 0.00209154 0.000498796 0.00022111 7.14531e-05
threshold=0.059000000000000004 0.25000000500000003 0.63351306500000015 0.76600000000000013 0.30450000000000005 0.57900000000000007 0.24600000000000002 1.0000000180025095e-35 0.91500000000000015
decision_type=2 2 10 2 2 2 2 2 2
left_child=-1 2 3 4 5 7 -4 -2 -3
right_child=1 8 6 -5 -6 -7 -8 -9 -10
leaf_value=0.0010203545242509001 -6.7152782177709128e-05 -0.00047957820053600998 -0.00044591552858049574 0.00032435881395738068 1.2295052687899077e-05 3.3726668067167344e-05 0 -0.00030974255219087999 -0.0001141889268518104
leaf_weight=191 82 344 88 122 1015 75 22 107 39
leaf_count=191 82 344 88 122 1015 75 22 107 39
internal_value=-4.27788e-07 -0.000106057 -1.4158e-05 1.13704e-05 -1.45986e-05 -0.000136894 -0.000384425 -0.000231024 -0.000455462
internal_weight=2085 1894 1511 1401 1279 264 110 189 383
internal_count=2085 1894 1511 1401 1279 264 110 189 383
is_linear=0
shrinkage=0.05


Tree=54
num_leaves=9
num_cat=0
split_feature=1 22 29 14 1 2 6 6
split_gain=0.0795517 0.0212549 0.0064534 0.00432199 0.00242242 0.000371397 0.000362539 0.00030561
threshold=0.059000000000000004 0.19485033000000004 0.17500000000000002 0.69333335000000018 0.76600000000000013 0.015000000000000001 0.068481855000000022 0.06432995950000002
decision_type=2 2 2 2 2 2 2 2
left_child=-1 2 4 6 -2 -4 -3 -5
right_child=1 3 5 7 -6 -7 -8 -9
leaf_value=0.00096936350067456571 1.7670976451082343e-05 -0.00022898104814328925 -5.9110763626722024e-05 -5.5868878556532118e-05 0.00027997204907433603 -0.00035939342658019679 -0.00047254141402036865 0.00017696952896739416
leaf_weight=191 1090 114 62 43 103 112 350 20
leaf_count=191 1090 114 62 43 103 112 350 20
internal_value=-4.79361e-07 -0.000100969 0 -0.000370735 4.45296e-05 -0.000281211 -0.000423537 0
internal_weight=2085 1894 1367 527 1193 174 464 63
internal_count=2085 1894 1367 527 1193 174 464 63
is_linear=0
shrinkage=0.05


Tree=55
num_leaves=13
num_cat=0
split_feature=19 30 14 21 29 9 18 18 25 9 9 11
split_gain=0.038586 0.0180562 0.0101187 0.0059965 0.00293389 0.00308741 0.00257614 0.00788888 0.00169506 0.000269789 0.000127535 8.78671e-05
threshold=-0.77336701999999991 0.32500000000000001 0.58500000000000008 0.63351306500000015 0.075000000000000025 0.3000000000000001 0.53571430000000009 0.41428571500000005 0.50000001500000002 0.50000000000000011 0.3000000000000001 0.030000000000000002
decision_type=8 2 2 10 2 2 2 2 2 2 2 2
left_child=6 2 3 4 9 -6 7 -1 10 -2 -3 -7
right_child=1 8 -4 -5 5 11 -8 -9 -10 -11 -12 -13
leaf_value=0.00079948713645660381 0.0002659870102951009 0 0.00063892590071024363 -0.00034639947680590856 8.4838795560271848e-06 0 0.0012181654705873232 0 -4.8297711221727273e-05 6.2351887826158647e-05 -0.00045178690145574493 -0.00027753806583423354
leaf_weight=88 103 22 61 127 990 39 39 37 65 124 283 107
leaf_count=88 103 22 61 127 990 39 39 37 65 124 283 107
internal_value=-4.54748e-07 -6.57095e-05 6.00885e-06 -1.65882e-05 1.04976e-05 -1.83538e-05 0.000733007 0.000540816 -0.000379776 0.000176843 -0.000433991 -0.00023444
internal_weight=2085 1921 1551 1490 1363 1136 164 125 370 227 305 146
internal_count=2085 1921 1551 1490 1363 1136 164 125 370 227 305 146
is_linear=0
shrinkage=0.05


Tree=56
num_leaves=11
num_cat=0
split_feature=1 26 21 1 2 1 19 19 6 29
split_gain=0.0660371 0.0176573 0.00485164 0.00381414 0.00139888 0.00162028 0.000482306 0.00205471 0.000286372 5.53823e-05
threshold=0.059000000000000004 0.25000000500000003 0.63351306500000015 0.76600000000000013 0.30450000000000005 0.57900000000000007 -0.77336701999999991 -1.0000000180025095e-35 0.06432995950000002 0.24948964000000004
decision_type=2 2 10 2 2 2 10 10 2 2
left_child=-1 2 3 4 5 9 -3 -8 -4 -2
right_child=1 6 8 -5 -6 -7 7 -9 -10 -11
leaf_value=0.00088306139021028041 -0.00026367412820061889 -0.00073541890819760344 0 0.00027877830367849607 1.0306412824796101e-05 2.8046761492463191e-05 0 -0.00037906683778441753 -0.00038080405491988542 -5.5754723211117412e-05
leaf_weight=191 107 37 21 122 1015 75 24 322 89 82
leaf_count=191 107 37 21 122 1015 75 24 322 89 82
internal_value=-3.51179e-07 -9.21204e-05 -1.18236e-05 9.84242e-06 -1.19214e-05 -0.000116284 -0.000395768 -0.000344798 -0.000332942 -0.000199984
internal_weight=2085 1894 1511 1401 1279 264 383 346 110 189
internal_count=2085 1894 1511 1401 1279 264 383 346 110 189
is_linear=0
shrinkage=0.05


Tree=57
num_leaves=10
num_cat=0
split_feature=1 22 29 14 1 2 6 6 6
split_gain=0.0596193 0.0162558 0.0047822 0.00320585 0.00172982 0.000172283 0.000158103 4.72746e-05 6.8735e-05
threshold=0.059000000000000004 0.19485033000000004 0.17500000000000002 0.69333335000000018 0.76600000000000013 0.015000000000000001 0.06432995950000002 0.068481855000000022 0.046958690500000004
decision_type=2 2 2 2 2 2 2 2 2
left_child=-1 2 4 7 -2 -4 -5 8 -3
right_child=1 3 5 6 -6 -7 -8 -9 -10
leaf_value=0.00083893142296522785 1.5539973646265837e-05 -0.00024359876972468534 -4.5059848765748132e-05 -4.2230734469805538e-05 0.0002387751779084525 -0.00030522223152419647 0.00012585841112339229 -0.00040961801348707907 0
leaf_weight=191 1090 80 62 43 103 112 20 350 34
leaf_count=191 1090 80 62 43 103 112 20 350 34
internal_value=-3.34237e-07 -8.76494e-05 0 -0.000323584 3.90226e-05 -0.000241319 0 -0.000369038 -0.000200379
internal_weight=2085 1894 1367 527 1193 174 63 464 114
internal_count=2085 1894 1367 527 1193 174 63 464 114
is_linear=0
shrinkage=0.05


Tree=58
num_leaves=10
num_cat=0
split_feature=1 22 28 14 1 1 6 28 1
split_gain=0.0538372 0.0147463 0.00436972 0.00290793 0.0015539 0.000147539 0.000142755 2.19977e-05 2.09237e-07
threshold=0.059000000000000004 0.19485033000000004 0.89000000000000012 0.69333335000000018 0.76600000000000013 0.24600000000000002 0.06432995950000002 0.91500000000000015 0.57900000000000007
decision_type=2 2 2 2 2 2 2 2 2
left_child=-1 2 5 7 8 -2 -5 -3 -4
right_child=1 3 4 6 -6 -7 -8 -9 -10
leaf_value=0.00079700682197235938 -0.00040911520892530348 -0.00036708421461466875 6.7675395623871374e-06 -4.0124098202019159e-05 0.00022684799391635408 -0.00013161196840853989 0.00011959681843421351 -5.3205345864491082e-05 4.3882681643004192e-05
leaf_weight=191 44 425 990 43 103 130 20 39 100
leaf_count=191 44 425 990 43 103 130 20 39 100
internal_value=-3.97463e-07 -8.34891e-05 0 -0.000308202 3.72821e-05 -0.000230699 0 -0.000351493 1.4763e-05
internal_weight=2085 1894 1367 527 1193 174 63 464 1090
internal_count=2085 1894 1367 527 1193 174 63 464 1090
is_linear=0
shrinkage=0.05


Tree=59
num_leaves=11
num_cat=0
split_feature=19 26 30 14 17 28 2 2 19 9
split_gain=0.0250991 0.0158411 0.0123546 0.00650285 0.00307079 0.00194692 0.00216748 0.00111819 0.000932403 4.41285e-05
threshold=-0.74919751999999995 0.66666665000000014 0.32500000000000001 0.58500000000000008 0.37861223500000002 0.93000000000000005 0.30450000000000005 0.20024699500000004 0.035453395500000005 0.50000000000000011
decision_type=8 2 2 2 2 2 2 2 10 2
left_child=1 -1 3 4 5 6 -2 -4 -6 -7
right_child=2 -3 7 -5 8 9 -8 -9 -10 -11
leaf_value=0.00077721153608929945 -0.00022725548230400304 -0.00054637182048812712 -7.3439194542814556e-05 0.0005123032392619968 0 0.00021551658063368183 6.4291965984473629e-06 -0.00037053753421202704 -0.00028109751030319983 4.1690739415973039e-05
leaf_weight=149 107 22 87 61 55 103 990 283 128 100
leaf_count=149 107 22 87 61 55 103 990 283 128 100
internal_value=-2.57232e-07 0.000577483 -5.45132e-05 4.50227e-06 -1.30468e-05 1.03219e-05 -1.18253e-05 -0.000314228 -0.000206277 0.000154569
internal_weight=2085 171 1914 1544 1483 1300 1097 370 183 203
internal_count=2085 171 1914 1544 1483 1300 1097 370 183 203
is_linear=0
shrinkage=0.05


Tree=60
num_leaves=9
num_cat=0
split_feature=21 12 2 22 9 6 14 26
split_gain=0.015804 0.0141473 0.0215359 0.00347001 0.00285803 0.00243304 0.00124467 0.000876056
threshold=-0.80138489999999984 1.0000000180025095e-35 0.075000000000000025 0.19485033000000004 0.80000000000000016 0.16426465000000004 0.57000000000000017 0.25000000500000003
decision_type=8 2 2 2 2 2 2 2
left_child=-1 2 -2 4 6 -5 -4 -3
right_child=1 7 3 5 -6 -7 -8 -9
leaf_value=0.00099302397140532813 0.00061803608832735127 -0.00011159545217275261 1.377129753834648e-05 -0.00036275835829854396 -0.00037022097978124278 8.122521401637821e-05 0.00020475121116524006 -0.00030647599004017886
leaf_weight=39 152 189 1090 109 44 20 103 339
leaf_count=39 152 189 1090 109 44 20 103 339
internal_value=-1.66561e-07 -2.15896e-05 5.32601e-05 -5.96524e-06 1.60013e-05 -0.000255184 3.44665e-05 -0.00024622
internal_weight=2085 2046 1518 1366 1237 129 1193 528
internal_count=2085 2046 1518 1366 1237 129 1193 528
is_linear=0
shrinkage=0.05


Tree=61
num_leaves=10
num_cat=0
split_feature=1 26 1 2 1 19 19 1 28
split_gain=0.039936 0.0109756 0.00314144 0.00446266 0.00077729 0.000543986 0.00162744 0.000127247 3.33659e-05
threshold=0.059000000000000004 0.25000000500000003 0.57900000000000007 0.30450000000000005 0.24600000000000002 -0.77336701999999991 -1.0000000180025095e-35 0.76600000000000013 0.91500000000000015
decision_type=2 2 2 2 2 10 10 2 2
left_child=-1 2 3 4 -2 -3 -7 -4 -8
right_child=1 5 7 -5 -6 6 8 -9 -10
leaf_value=0.00068653611435098285 -0.00034488677233288393 -0.00062601786367896437 3.8920409119614475e-05 5.4192734579492195e-06 -0.00010601863358797736 0 -0.00031488758864829333 0.00022095750222542464 -2.1248346771044494e-05
leaf_weight=191 110 37 100 990 189 24 283 122 39
leaf_count=191 110 37 100 990 189 24 283 122 39
internal_value=0 -7.18142e-05 -7.79544e-06 -4.0846e-05 -0.000210699 -0.000311259 -0.000262982 0.000161526 -0.000294863
internal_weight=2085 1894 1511 1289 299 383 346 222 322
internal_count=2085 1894 1511 1289 299 383 346 222 322
is_linear=0
shrinkage=0.05


Tree=62
num_leaves=8
num_cat=0
split_feature=1 22 29 14 1 2 6
split_gain=0.0360472 0.010054 0.0030103 0.00206423 0.00103589 9.40573e-05 4.93358e-05
threshold=0.059000000000000004 0.19485033000000004 0.17500000000000002 0.69333335000000018 0.57900000000000007 1.0000000180025095e-35 0.06432995950000002
decision_type=2 2 2 2 2 2 2
left_child=-1 2 4 -3 -2 -4 -5
right_child=1 3 5 6 -6 -7 -8
leaf_value=0.00065222728090026444 5.1483375991248484e-06 -0.00029032895346858454 0 -1.3299136835295191e-05 0.0001359861249178428 -0.00022556604274658965 7.5875146346935859e-05
leaf_weight=191 990 464 45 43 203 129 20
leaf_count=191 990 464 45 43 203 129 20
internal_value=0 -6.8254e-05 0 -0.000253822 3.16119e-05 -0.000190731 0
internal_weight=2085 1894 1367 527 1193 174 63
internal_count=2085 1894 1367 527 1193 174 63
is_linear=0
shrinkage=0.05


Tree=63
num_leaves=10
num_cat=0
split_feature=1 26 1 10 1 19 19 1 28
split_gain=0.0325319 0.00912581 0.00261476 0.00366677 0.000621737 0.000492204 0.00147585 0.000113847 3.76268e-05
threshold=0.059000000000000004 0.25000000500000003 0.57900000000000007 0.55000000000000016 0.24600000000000002 -0.77336701999999991 -1.0000000180025095e-35 0.76600000000000013 0.91500000000000015
decision_type=2 2 2 2 2 10 10 2 2
left_child=-1 2 3 4 -2 -3 -7 -4 -8
right_child=1 5 7 -5 -6 6 8 -9 -10
leaf_value=0.0006196329738088986 -0.00031315482844963176 -0.00058224421908270639 3.0183817188327127e-05 4.8909467823380887e-06 -9.2756808596452156e-05 0 -0.0002859655138847317 0.00020359264443385174 -5.7093183393292343e-06
leaf_weight=191 110 37 100 990 189 24 283 122 39
leaf_count=191 110 37 100 990 189 24 283 122 39
internal_value=0 -6.4818e-05 -6.15186e-06 -3.65962e-05 -0.000190634 -0.000283152 -0.000236563 0.000148042 -0.000267557
internal_weight=2085 1894 1511 1289 299 383 346 222 322
internal_count=2085 1894 1511 1289 299 383 346 222 322
is_linear=0
shrinkage=0.05


Tree=64
num_leaves=11
num_cat=0
split_feature=19 21 30 14 22 6 28 6 6 19
split_gain=0.0145584 0.0103489 0.00766038 0.003729 0.00299258 0.00115377 0.00109437 0.000618232 0.000335859 4.1638e-06
threshold=-0.74919751999999995 -0.80138489999999984 0.32500000000000001 0.58500000000000008 0.19485033000000004 0.061748356500000011 0.93000000000000005 0.072701845000000015 0.15248901000000004 -0.14240878999999998
decision_type=8 10 2 2 2 2 2 2 2 10
left_child=1 -1 3 4 6 9 8 -4 -2 -6
right_child=2 -3 7 -5 5 -7 -8 -9 -10 -11
leaf_value=0.00060473752491011228 -9.6925898176007389e-05 -0.00044846726809017254 -4.6446918625914922e-05 0.00038913464975435098 0 -0.00029772620568154786 0.0001232845950041724 -0.00028980323144753506 4.6464236358500649e-06 -1.2363501111672513e-05
leaf_weight=149 87 22 87 61 21 114 203 283 990 68
leaf_count=149 87 22 87 61 21 114 203 283 990 68
internal_value=0 0.000439832 -4.14994e-05 4.30987e-06 -8.17292e-06 -0.000188668 1.65591e-05 -0.000246119 0 0
internal_weight=2085 171 1914 1544 1483 203 1280 370 1077 89
internal_count=2085 171 1914 1544 1483 203 1280 370 1077 89
is_linear=0
shrinkage=0.05


Tree=65
num_leaves=7
num_cat=0
split_feature=1 22 28 14 1 13
split_gain=0.0266701 0.0075284 0.00230541 0.00155099 0.00075355 5.88338e-05
threshold=0.059000000000000004 0.19485033000000004 0.89000000000000012 0.69333335000000018 0.57900000000000007 0.99871480000000012
decision_type=2 2 2 2 2 2
left_child=-1 2 5 -3 -4 -2
right_child=1 3 4 -5 -6 -7
leaf_value=0.00056081573924313881 -0.00018171001665484013 -0.00025113433347263928 4.414126501181986e-06 0 0.00011712339617759504 0
leaf_weight=191 151 464 990 63 203 23
leaf_count=191 151 464 990 63 203 23
internal_value=0 -5.89026e-05 0 -0.000219486 2.77916e-05 -0.000166768
internal_weight=2085 1894 1367 527 1193 174
internal_count=2085 1894 1367 527 1193 174
is_linear=0
shrinkage=0.05


Tree=66
num_leaves=8
num_cat=0
split_feature=1 22 29 14 1 13 6
split_gain=0.0240615 0.00679692 0.00209608 0.00140697 0.000689581 4.30932e-05 1.58826e-05
threshold=0.059000000000000004 0.19485033000000004 0.17500000000000002 0.69333335000000018 0.76600000000000013 0.99871480000000012 0.06432995950000002
decision_type=2 2 2 2 2 2 2
left_child=-1 2 4 -3 -2 -4 -5
right_child=1 3 5 6 -6 -7 -8
leaf_value=0.00053278963578146576 9.9260324936954068e-06 -0.00023858032252684582 -0.00017263053345951929 -7.6060298951277226e-07 0.00015451522389558714 0 4.44320629383275e-05
leaf_weight=191 1090 464 151 43 103 23 20
leaf_count=191 1090 464 151 43 103 23 20
internal_value=0 -5.58452e-05 0 -0.000208433 2.66121e-05 -0.000158888 0
internal_weight=2085 1894 1367 527 1193 174 63
internal_count=2085 1894 1367 527 1193 174 63
is_linear=0
shrinkage=0.05


Tree=67
num_leaves=8
num_cat=0
split_feature=1 26 1 2 2 28 1
split_gain=0.0217093 0.00635559 0.00183217 0.00247113 0.000419916 0.000103185 8.79559e-05
threshold=0.059000000000000004 0.25000000500000003 0.57900000000000007 0.30450000000000005 0.015000000000000001 0.91500000000000015 0.76600000000000013
decision_type=2 2 2 2 2 2 2
left_child=-1 2 3 4 -2 -3 -4
right_child=1 5 6 -5 -6 -7 -8
leaf_value=0.00050616408868832689 -2.781747471488102e-05 -0.00024962611132418042 1.6171936472351259e-05 3.697190403475689e-06 -0.00021511856283509351 0 0.00017339069618218803
leaf_weight=191 121 344 100 990 178 39 122
leaf_count=191 121 344 100 990 178 39 122
internal_value=0 -5.29631e-05 -3.46166e-06 -2.9494e-05 -0.000156073 -0.000235152 0.000125123
internal_weight=2085 1894 1511 1289 299 383 222
internal_count=2085 1894 1511 1289 299 383 222
is_linear=0
shrinkage=0.05


Tree=68
num_leaves=11
num_cat=0
split_feature=1 26 1 2 19 19 1 1 11 28
split_gain=0.0195921 0.00577396 0.00167878 0.00226005 0.000528162 0.00119584 0.000359135 5.55185e-05 6.82212e-06 4.93097e-06
threshold=0.059000000000000004 0.25000000500000003 0.57900000000000007 0.30450000000000005 -0.77336701999999991 -1.0000000180025095e-35 0.24600000000000002 0.76600000000000013 0.030000000000000002 0.91500000000000015
decision_type=2 2 2 2 10 10 2 2 2 2
left_child=-1 2 3 6 -3 -6 -2 -4 -8 -7
right_child=1 4 7 -5 5 9 8 -9 -10 -11
leaf_value=0.00048086914033563209 -0.00024742885838710212 -0.00050269826604028278 1.5364146719758325e-05 3.5123495467614997e-06 1.4515414146157703e-05 -0.00022360470359115284 0 0.00016472825439559891 -7.4113941091242478e-05 0
leaf_weight=191 110 37 100 990 24 283 39 122 150 39
leaf_count=191 110 37 100 990 24 283 39 122 150 39
internal_value=0 -5.02944e-05 -2.95785e-06 -2.80202e-05 -0.000223944 -0.000179552 -0.000149109 0.000119997 -6.5344e-05 -0.00020954
internal_weight=2085 1894 1511 1289 383 346 299 222 189 322
internal_count=2085 1894 1511 1289 383 346 299 222 189 322
is_linear=0
shrinkage=0.05


Tree=69
num_leaves=8
num_cat=0
split_feature=1 22 28 14 1 13 6
split_gain=0.0176837 0.00511304 0.0015584 0.00111491 0.000514959 1.8083e-05 5.64367e-06
threshold=0.059000000000000004 0.19485033000000004 0.89000000000000012 0.69333335000000018 0.57900000000000007 0.99871480000000012 0.06432995950000002
decision_type=2 2 2 2 2 2 2
left_child=-1 2 5 -3 -4 -2 -5
right_child=1 3 4 6 -6 -7 -8
leaf_value=0.00045683825781353484 -0.00014725906790118891 -0.00020705258820140305 3.336750405497996e-06 0 9.775766789874661e-05 0 2.6494327965030311e-05
leaf_weight=191 151 464 990 43 203 23 20
leaf_count=191 151 464 990 43 203 23 20
internal_value=0 -4.77931e-05 0 -0.000180163 2.3601e-05 -0.000136238 0
internal_weight=2085 1894 1367 527 1193 174 63
internal_count=2085 1894 1367 527 1193 174 63
is_linear=0
shrinkage=0.05


Tree=70
num_leaves=9
num_cat=0
split_feature=21 12 2 28 2 22 9 22
split_gain=0.00760085 0.00504049 0.00632962 0.0014323 0.00374295 0.00029429 4.90346e-05 4.07953e-05
threshold=-0.80138489999999984 1.0000000180025095e-35 0.075000000000000025 0.90500000000000014 0.30450000000000005 0.53116845000000013 0.50000000000000011 0.20386203000000003
decision_type=8 2 2 2 2 2 2 2
left_child=-1 2 -2 4 -4 7 -5 -3
right_child=1 5 3 6 -6 -7 -8 -9
leaf_value=0.00068912145996089945 0.00033526849108800186 -5.8957955908806258e-05 -0.00025748903760390384 0.00015216916801452174 3.1699295479964373e-06 -0.00018364884039726945 9.713706362259374e-06 0
leaf_weight=39 152 130 154 122 990 360 100 38
leaf_count=39 152 130 154 122 990 360 100 38
internal_value=0 -1.45638e-05 2.89876e-05 -1.45547e-06 -2.7568e-05 -0.000149224 0.000110546 -4.56459e-05
internal_weight=2085 2046 1518 1366 1144 528 222 168
internal_count=2085 2046 1518 1366 1144 528 222 168
is_linear=0
shrinkage=0.05


Tree=71
num_leaves=11
num_cat=0
split_feature=1 26 1 2 19 30 2 1 14 14
split_gain=0.0144732 0.00439382 0.00128653 0.00168536 0.000503581 0.00106495 0.000275573 2.31572e-05 1.01726e-05 6.27729e-06
threshold=0.059000000000000004 0.25000000500000003 0.57900000000000007 0.30450000000000005 -0.77336701999999991 0.32500000000000001 0.015000000000000001 0.76600000000000013 0.55476365000000016 0.89550000000000007
decision_type=2 2 2 2 10 2 2 2 2 2
left_child=-1 2 3 6 -3 8 -2 -4 -6 -7
right_child=1 4 7 -5 5 9 -8 -9 -10 -11
leaf_value=0.00041364290250035432 -1.5141946089805451e-05 -0.00045773220722967729 9.228506839120541e-06 3.0114490058476816e-06 3.2484645595874519e-05 -0.00020179255369355832 -0.00017703030618448348 0.00014456694611606789 0 0
leaf_weight=191 121 37 100 990 24 261 178 122 39 22
leaf_count=191 121 37 100 990 24 261 178 122 39 22
internal_value=0 -4.28993e-05 -1.19499e-06 -2.35677e-05 -0.000194335 -0.000151597 -0.000128261 0.000106148 0 -0.00019365
internal_weight=2085 1894 1511 1289 383 346 299 222 63 283
internal_count=2085 1894 1511 1289 383 346 299 222 63 283
is_linear=0
shrinkage=0.05


Tree=72
num_leaves=8
num_cat=0
split_feature=1 22 28 28 1 15 14
split_gain=0.0130638 0.00384485 0.00115597 0.000911309 0.000377819 2.8502e-05 1.14669e-06
threshold=0.059000000000000004 0.19485033000000004 0.89000000000000012 0.90500000000000014 0.57900000000000007 0.45000000000000007 0.59500000000000008
decision_type=2 2 2 2 2 2 2
left_child=5 2 6 -3 -4 -1 -2
right_child=1 3 4 -5 -6 -7 -8
leaf_value=0.00052916487179042061 -0.00012431190137621832 -0.00017905040761169804 2.8608919087885443e-06 0 8.4881536382402283e-05 0.0002416583705972622 0
leaf_weight=83 153 469 990 58 203 108 21
leaf_count=83 153 469 990 58 203 108 21
internal_value=0 -4.07709e-05 0 -0.000155593 2.10142e-05 0.000392972 -0.000116503
internal_weight=2085 1894 1367 527 1193 191 174
internal_count=2085 1894 1367 527 1193 191 174
is_linear=0
shrinkage=0.05


Tree=73
num_leaves=9
num_cat=0
split_feature=1 26 1 2 19 19 2 1
split_gain=0.0118572 0.0037072 0.00107789 0.00137207 0.000451598 0.000949412 0.00024095 1.9918e-05
threshold=0.059000000000000004 0.25000000500000003 0.57900000000000007 0.30450000000000005 -0.77336701999999991 -1.0000000180025095e-35 0.015000000000000001 0.76600000000000013
decision_type=2 2 2 2 10 10 2 2
left_child=-1 2 3 6 -3 -6 -2 -4
right_child=1 4 7 -5 5 -7 -8 -9
leaf_value=0.00037465137488017181 -7.9194282754120571e-06 -0.00042760187604356657 4.5277061523287184e-06 2.7178617571795214e-06 3.9782527934651643e-05 -0.00016499222820067822 -0.0001602812510549579 0.00013376433725707559
leaf_weight=191 121 37 100 990 24 322 178 122
leaf_count=191 121 37 100 990 24 322 178 122
internal_value=0 -3.85817e-05 -1.87477e-08 -2.08007e-05 -0.000177628 -0.000136334 -0.000115363 9.80903e-05
internal_weight=2085 1894 1511 1289 383 346 299 222
internal_count=2085 1894 1511 1289 383 346 299 222
is_linear=0
shrinkage=0.05


Tree=74
num_leaves=11
num_cat=0
split_feature=1 26 1 2 19 19 2 10 28 19
split_gain=0.0106944 0.00335335 0.000991614 0.00126036 0.000382122 0.000882721 0.000195479 2.48896e-05 6.48712e-06 2.19049e-06
threshold=0.059000000000000004 0.25000000500000003 0.57900000000000007 0.30450000000000005 -0.77336701999999991 -1.0000000180025095e-35 0.015000000000000001 0.25000000000000006 0.91500000000000015 0.9552238500000001
decision_type=2 2 2 2 10 10 2 2 2 10
left_child=7 2 3 6 -3 -6 -2 -1 -7 -4
right_child=1 4 9 -5 5 8 -8 -9 -10 -11
leaf_value=0.00042796095039957552 -7.5237845075658931e-06 -0.00040627941137777191 0.00011605061453758892 2.5819824220047887e-06 3.780165457271069e-05 -0.00016736481896348636 -0.00015227168431486738 0.00014341973746124991 0 0
leaf_weight=125 121 37 147 990 24 283 178 66 39 75
leaf_count=125 121 37 147 990 24 283 178 66 39 75
internal_value=0 -3.65222e-05 0 -1.97613e-05 -0.000168754 -0.000128797 -0.000110434 0.000355929 -0.000156745 9.43145e-05
internal_weight=2085 1894 1511 1289 383 346 299 191 322 222
internal_count=2085 1894 1511 1289 383 346 299 191 322 222
is_linear=0
shrinkage=0.05


Tree=75
num_leaves=12
num_cat=0
split_feature=1 21 19 1 21 1 15 6 1 15 11
split_gain=0.00971925 0.00242924 0.00222419 0.00114476 0.000811734 0.000237664 7.52123e-05 3.77018e-05 2.73152e-05 5.12307e-06 7.69585e-07
threshold=0.059000000000000004 0.63351306500000015 -0.77336701999999991 0.46350000000000008 1.0000000180025095e-35 0.24600000000000002 0.92857143500000017 0.06432995950000002 0.24600000000000002 0.45000000000000007 0.030000000000000002
decision_type=2 10 10 2 8 2 2 2 2 2 2
left_child=9 2 -2 4 5 -4 -5 -3 -6 -1 -10
right_child=1 7 3 6 8 -7 -8 -9 10 -11 -12
leaf_value=0.00046265613173933709 -0.00038602018698728633 -9.2649662759057348e-06 -0.00025117908437607511 0.00014150863786500196 2.452895962305381e-06 0 2.8523634867993838e-06 -0.00015985249710697832 0 0.00019817940109374073 -2.6704854092619624e-05
leaf_weight=83 37 80 44 146 990 38 100 330 39 108 90
leaf_count=83 37 80 44 146 990 38 100 330 39 108 90
internal_value=0 -3.46773e-05 -1.46403e-06 4.93994e-06 -1.14989e-05 -0.000163255 0.000105485 -0.000142671 0 0.000339455 -2.19729e-05
internal_weight=2085 1894 1484 1447 1201 82 246 410 1119 191 129
internal_count=2085 1894 1484 1447 1201 82 246 410 1119 191 129
is_linear=0
shrinkage=0.05


Tree=76
num_leaves=9
num_cat=0
split_feature=21 12 17 17 13 28 14 26
split_gain=0.00473559 0.00283393 0.00317879 0.000509981 0.000461454 0.000290865 0.000206842 9.11938e-05
threshold=-0.80138489999999984 1.0000000180025095e-35 0.74500000000000011 0.37861223500000002 1.0000000180025095e-35 0.93000000000000005 0.57000000000000017 0.25000000500000003
decision_type=8 2 2 2 2 2 2 2
left_child=-1 2 3 4 -2 6 -6 -3
right_child=1 7 -4 -5 5 -7 -8 -9
leaf_value=0.00054463207593087658 -0.00014484283902899885 -3.6189806185754353e-05 0.00024049610604102946 -0.00011865941233611607 6.9855123957030708e-06 6.9820841202069433e-05 -0.00014547753902110038 -0.00013982115217078882
leaf_weight=39 44 189 149 88 1012 203 22 339
leaf_count=39 44 189 149 88 1012 203 22 339
internal_value=0 -1.08522e-05 2.11133e-05 0 5.18931e-06 1.45789e-05 0 -0.000112208
internal_weight=2085 2046 1518 1369 1281 1237 1034 528
internal_count=2085 2046 1518 1369 1281 1237 1034 528
is_linear=0
shrinkage=0.05


Tree=77
num_leaves=9
num_cat=0
split_feature=1 26 1 2 19 19 15 14
split_gain=0.00811671 0.00251809 0.000759256 0.001007 0.000280719 0.000727975 0.000145469 1.22165e-05
threshold=0.059000000000000004 0.25000000500000003 0.57900000000000007 0.30450000000000005 -0.77336701999999991 -1.0000000180025095e-35 0.15476191000000003 0.89550000000000007
decision_type=2 2 2 2 10 10 2 2
left_child=-1 2 3 6 -3 -6 -2 -7
right_child=1 4 -4 -5 5 7 -8 -9
leaf_value=0.00031003027208064635 0 -0.00035965009642679579 8.230373087084994e-05 1.981023560136928e-06 3.5835390609082329e-05 -0.00014070353019744858 -0.00011720764535803511 0
leaf_weight=191 61 37 222 990 24 300 238 22
leaf_count=191 61 37 222 990 24 300 238 22
internal_value=0 -3.18671e-05 0 -1.74749e-05 -0.000146469 -0.000109128 -9.85902e-05 -0.000135464
internal_weight=2085 1894 1511 1289 383 346 299 322
internal_count=2085 1894 1511 1289 383 346 299 322
is_linear=0
shrinkage=0.05


Tree=78
num_leaves=8
num_cat=0
split_feature=1 22 28 28 1 10 14
split_gain=0.00732333 0.00225823 0.00060338 0.000603165 0.000188411 3.02629e-05 1.4012e-05
threshold=0.059000000000000004 0.19485033000000004 0.89000000000000012 0.90500000000000014 0.57900000000000007 0.25000000000000006 0.89550000000000007
decision_type=2 2 2 2 2 2 2
left_child=5 2 -2 6 -4 -1 -3
right_child=1 3 4 -5 -6 -7 -8
leaf_value=0.00035771354990114248 -8.2666435235354902e-05 -0.00014123560853651228 1.8819823153223848e-06 0 6.2218358113023711e-05 9.8880932070371258e-05 0
leaf_weight=125 174 447 990 58 203 66 22
leaf_count=125 174 447 990 58 203 66 22
internal_value=0 -3.0222e-05 7.876e-08 -0.000118291 1.63439e-05 0.000294537 -0.000137613
internal_weight=2085 1894 1367 527 1193 191 469
internal_count=2085 1894 1367 527 1193 191 469
is_linear=0
shrinkage=0.05


Tree=79
num_leaves=9
num_cat=0
split_feature=1 26 1 2 19 19 2 1
split_gain=0.00665929 0.00212284 0.000623472 0.000811603 0.000255442 0.000661115 0.000136706 1.03882e-05
threshold=0.059000000000000004 0.25000000500000003 0.57900000000000007 0.30450000000000005 -0.77336701999999991 -1.0000000180025095e-35 0.015000000000000001 0.76600000000000013
decision_type=2 2 2 2 10 10 2 2
left_child=-1 2 3 6 -3 -6 -2 -4
right_child=1 4 7 -5 5 -7 -8 -9
leaf_value=0.00028113018564659612 0 -0.00033640987478256867 0 1.7878925871068631e-06 4.1083531952714265e-05 -0.00012338920567605096 -0.00012233432407576146 0.0001026619602540885
leaf_weight=191 121 37 100 990 24 322 178 122
leaf_count=191 121 37 100 990 24 322 178 122
internal_value=0 -2.85583e-05 0 -1.51987e-05 -0.000133736 -9.75254e-05 -8.81403e-05 7.5347e-05
internal_weight=2085 1894 1511 1289 383 346 299 222
internal_count=2085 1894 1511 1289 383 346 299 222
is_linear=0
shrinkage=0.05


Tree=80
num_leaves=11
num_cat=0
split_feature=1 26 1 10 19 19 6 10 28 14
split_gain=0.00600535 0.00192104 0.000574579 0.000748145 0.000212326 0.000615148 0.000117081 2.76192e-05 7.3763e-06 1.40206e-05
threshold=0.059000000000000004 0.25000000500000003 0.57900000000000007 0.55000000000000016 -0.77336701999999991 -1.0000000180025095e-35 0.061748356500000011 0.25000000000000006 0.91500000000000015 0.89550000000000007
decision_type=2 2 2 2 10 10 2 2 2 2
left_child=7 2 3 6 -3 -6 -2 -1 9 -7
right_child=1 4 -4 -5 5 8 -8 -9 -10 -11
leaf_value=0.00032579690900271679 -1.9481759010401085e-05 -0.00031963471747493001 7.252738512201233e-05 1.6985070179170941e-06 3.9037879502315729e-05 -0.00013098106133687008 -0.00014076688170795097 7.9909125103441926e-05 0 0
leaf_weight=125 180 37 222 990 24 261 119 66 39 22
leaf_count=125 180 37 222 990 24 261 119 66 39 22
internal_value=0 -2.70095e-05 0 -1.44227e-05 -0.000127055 -9.1928e-05 -8.45002e-05 0.000267081 -0.000117222 -0.000125296
internal_weight=2085 1894 1511 1289 383 346 299 191 322 283
internal_count=2085 1894 1511 1289 383 346 299 191 322 283
is_linear=0
shrinkage=0.05


Tree=81
num_leaves=7
num_cat=0
split_feature=1 22 28 28 1 15
split_gain=0.00547483 0.00171267 0.000486452 0.000434792 0.000127433 4.01694e-05
threshold=0.059000000000000004 0.17158798500000003 0.90500000000000014 0.89000000000000012 0.57900000000000007 0.45000000000000007
decision_type=2 2 2 2 2 2
left_child=5 3 -3 -2 -5 -1
right_child=1 2 -4 4 -6 -7
leaf_value=0.00035983820548241854 -6.9660122397007779e-05 -0.00011973606558524084 0 1.6135898905361978e-06 5.288119412956788e-05 0.00012799907543771419
leaf_weight=83 172 471 58 990 203 108
leaf_count=83 172 471 58 990 203 108
internal_value=0 -2.57543e-05 -0.000102307 2.55863e-07 1.45317e-05 0.000255046
internal_weight=2085 1894 529 1365 1193 191
internal_count=2085 1894 529 1365 1193 191
is_linear=0
shrinkage=0.05


Tree=82
num_leaves=10
num_cat=0
split_feature=1 26 1 2 11 1 12 10 28
split_gain=0.00498301 0.00161852 0.000474884 0.000613443 0.00011733 1.77971e-05 1.56259e-05 1.48964e-05 1.2309e-05
threshold=0.059000000000000004 0.25000000500000003 0.57900000000000007 0.30450000000000005 0.030000000000000002 0.76600000000000013 0.3000000000000001 0.15000000000000005 0.91500000000000015
decision_type=2 2 2 2 2 2 2 2 2
left_child=6 2 3 4 -2 -4 -1 8 -3
right_child=1 7 5 -5 -6 -7 -8 -9 -10
leaf_value=0.00016113703496102675 0 -0.00012743068803032384 0 1.5329185831482328e-06 -8.8345238353762748e-05 9.1679221233482693e-05 0.00043595366860570774 0 0
leaf_weight=152 39 322 100 990 260 122 39 22 39
leaf_count=152 39 322 100 990 260 122 39 22 39
internal_value=0 -2.42748e-05 0 -1.26241e-05 -7.62004e-05 6.6486e-05 0.000243615 -0.000116084 -0.000119998
internal_weight=2085 1894 1511 1289 299 222 191 383 361
internal_count=2085 1894 1511 1289 299 222 191 383 361
is_linear=0
shrinkage=0.05


Tree=83
num_leaves=9
num_cat=0
split_feature=1 26 1 2 19 19 2 1
split_gain=0.00453925 0.00148081 0.000435226 0.00055558 0.000208898 0.000540142 0.000113135 6.98706e-06
threshold=0.059000000000000004 0.25000000500000003 0.57900000000000007 0.30450000000000005 -0.77336701999999991 -1.0000000180025095e-35 0.015000000000000001 0.76600000000000013
decision_type=2 2 2 2 10 10 2 2
left_child=-1 2 3 6 -3 -6 -2 -4
right_child=1 4 7 -5 5 -7 -8 -9
leaf_value=0.00023275761543612293 0 -0.0002928557737938799 0 1.4562806592490975e-06 4.9401149230997585e-05 -0.00010166296921034328 -0.00010188953013142079 8.7099005796173912e-05
leaf_weight=191 121 37 100 990 24 322 178 122
leaf_count=191 121 37 100 990 24 322 178 122
internal_value=0 -2.29206e-05 0 -1.17921e-05 -0.000110728 -7.67266e-05 -7.23606e-05 6.3968e-05
internal_weight=2085 1894 1511 1289 383 346 299 222
internal_count=2085 1894 1511 1289 383 346 299 222
is_linear=0
shrinkage=0.05


Tree=84
num_leaves=12
num_cat=0
split_feature=1 25 1 14 19 28 15 2 19 19 6
split_gain=0.0040925 0.00122286 0.000364112 0.000604445 0.000322893 0.000493063 2.55051e-05 2.21098e-05 2.12416e-05 4.03616e-06 5.78678e-07
threshold=0.059000000000000004 0.35714286500000003 0.57900000000000007 0.11735511500000001 -0.77336701999999991 0.67500000000000016 0.45000000000000007 0.29938612500000006 -0.41229044999999992 -0.036035865999999993 0.15383427500000005
decision_type=2 2 2 2 10 2 2 2 10 10 2
left_child=6 2 3 10 -3 8 -1 -5 -6 -7 -2
right_child=1 4 -4 7 5 9 -8 -9 -10 -11 -12
leaf_value=0.00031574815552329783 0 -0.00027825244378569633 6.1575811511875946e-05 0 4.6941337438447088e-05 0 0.00010192852459113898 -0.0001218300305778917 0 -9.1472333086206723e-05 1.3655369633348021e-06
leaf_weight=83 20 37 222 22 24 22 108 110 77 373 987
leaf_count=83 20 37 222 22 24 22 108 110 77 373 987
internal_value=0 -2.16415e-05 0 -7.73605e-06 -8.60159e-05 -6.15438e-05 0.000221126 -0.000109326 0 -8.87454e-05 6.25431e-07
internal_weight=2085 1894 1361 1139 533 496 191 132 101 395 1007
internal_count=2085 1894 1361 1139 533 496 191 132 101 395 1007
is_linear=0
shrinkage=0.05


Tree=85
num_leaves=8
num_cat=0
split_feature=1 22 14 29 1 17 15
split_gain=0.00373542 0.00119408 0.000377101 0.000268285 7.32764e-05 3.96219e-05 0.000338933
threshold=0.059000000000000004 0.17158798500000003 0.69333335000000018 0.17500000000000002 0.57900000000000007 0.74500000000000011 0.45000000000000007
decision_type=2 2 2 2 2 2 2
left_child=5 3 -3 4 -2 -1 -7
right_child=1 2 -4 -5 -6 6 -8
leaf_value=0 1.3154107836214714e-06 -0.00010070184523437697 0 -5.3011775177100946e-05 4.2627886086032859e-05 0.00037236866724499047 9.6836818768113007e-05
leaf_weight=22 990 466 63 172 203 61 108
leaf_count=22 990 466 63 172 203 61 108
internal_value=0 -2.05415e-05 -8.4567e-05 6.12985e-07 1.25389e-05 0.000211389 0.000226019
internal_weight=2085 1894 529 1365 1193 191 169
internal_count=2085 1894 529 1365 1193 191 169
is_linear=0
shrinkage=0.05


Tree=86
num_leaves=10
num_cat=0
split_feature=1 26 1 10 19 19 11 1 28
split_gain=0.00342394 0.00112777 0.000331858 0.000417664 0.000162019 0.000453223 9.19052e-05 1.20739e-05 4.07344e-06
threshold=0.059000000000000004 0.25000000500000003 0.57900000000000007 0.55000000000000016 -0.77336701999999991 -1.0000000180025095e-35 0.030000000000000002 0.76600000000000013 0.91500000000000015
decision_type=2 2 2 2 10 10 2 2 2
left_child=-1 2 3 6 -3 -6 -2 -4 -7
right_child=1 4 7 -5 5 8 -8 -9 -10
leaf_value=0.00020270922415208004 0 -0.00026076979416791562 0 1.2496471351565961e-06 4.9618207289222847e-05 -9.3838971307884782e-05 -7.314961913848488e-05 7.7873382150644806e-05 0
leaf_weight=191 39 37 100 990 24 283 260 122 39
leaf_count=191 39 37 100 990 24 283 260 122 39
internal_value=0 -1.93248e-05 0 -9.62339e-06 -9.59475e-05 -6.3805e-05 -6.23296e-05 5.65503e-05 -8.77948e-05
internal_weight=2085 1894 1511 1289 383 346 299 222 322
internal_count=2085 1894 1511 1289 383 346 299 222 322
is_linear=0
shrinkage=0.05


Tree=87
num_leaves=10
num_cat=0
split_feature=1 22 2 29 1 17 15 29 29
split_gain=0.00308537 0.000997871 0.000251163 0.000207031 5.54138e-05 3.77136e-05 0.000303676 6.03507e-06 1.624e-05
threshold=0.059000000000000004 0.17158798500000003 0.45000000000000007 0.17500000000000002 0.57900000000000007 0.74500000000000011 0.45000000000000007 0.27960534500000006 0.28002934000000007
decision_type=2 2 2 2 2 2 2 2 2
left_child=5 3 7 4 -2 -1 -7 -3 -9
right_child=1 2 -4 -5 -6 6 -8 8 -10
leaf_value=0 1.1871711598493724e-06 -0.00010923272131744183 0 -4.5375934206593281e-05 3.8522908648412725e-05 0.00034366182999307393 8.1873367407861466e-05 0 -3.151432674615474e-05
leaf_weight=22 990 307 41 172 203 61 108 41 140
leaf_count=22 990 307 41 172 203 61 108 41 140
internal_value=0 -1.81819e-05 -7.67882e-05 8.71894e-07 1.17337e-05 0.000192579 0.000206081 -8.76251e-05 -2.33264e-05
internal_weight=2085 1894 529 1365 1193 191 169 488 181
internal_count=2085 1894 529 1365 1193 191 169 488 181
is_linear=0
shrinkage=0.05


Tree=88
num_leaves=9
num_cat=0
split_feature=1 22 14 25 1 10 17 6
split_gain=0.0028344 0.000910017 0.000315783 0.000175233 5.34389e-05 2.48663e-05 0.000139597 3.77742e-07
threshold=0.059000000000000004 0.17158798500000003 0.69333335000000018 0.35714286500000003 0.57900000000000007 0.25000000000000006 0.74500000000000011 0.15383427500000005
decision_type=2 2 2 2 2 2 2 2
left_child=5 3 -3 4 7 6 -1 -2
right_child=1 2 -4 -5 -6 -7 -8 -9
leaf_value=0 0 -8.8185051291055533e-05 0 -4.4003005827363364e-05 3.65977126038631e-05 2.5733671420212952e-05 0.00025855449987412818 1.1096747332265202e-06
leaf_weight=22 20 466 63 155 203 66 103 987
leaf_count=22 20 466 63 155 203 66 103 987
internal_value=0 -1.72117e-05 -7.32022e-05 8.28279e-07 1.07062e-05 0.000184781 0.000228702 5.1887e-07
internal_weight=2085 1894 529 1365 1210 191 125 1007
internal_count=2085 1894 529 1365 1210 191 125 1007
is_linear=0
shrinkage=0.05


Tree=89
num_leaves=8
num_cat=0
split_feature=1 22 28 28 1 17 14
split_gain=0.00260291 0.000819127 0.000304998 0.000173857 4.09237e-05 8.61768e-06 2.86414e-06
threshold=0.059000000000000004 0.17158798500000003 0.90500000000000014 0.89000000000000012 0.57900000000000007 0.74500000000000011 0.89550000000000007
decision_type=2 2 2 2 2 2 2
